6022 50
harry 0.343565 0.234480 0.298403 -0.657467 -0.119116 -0.140145 -0.087381 -0.075736 -0.580234 0.348488 0.535947 0.048725 -0.766513 -0.677799 -0.035468 -0.672949 -0.015735 0.747510 0.191427 -0.758615 0.469221 0.046940 -0.615735 -0.216227 -0.165166 -0.415985 -0.612045 0.029420 -0.314368 -0.330240 0.104281 0.285114 0.965102 -0.079751 0.492222 -0.011498 0.859394 -0.364071 0.450098 0.180583 0.021775 -0.114182 -1.310190 -0.192316 0.225076 0.194048 -0.729179 0.557960 0.261346 -0.046173
potter 0.266786 0.449922 0.408426 -0.171473 -0.507436 0.251995 -0.291569 -0.623295 -0.407633 0.677672 0.297873 -0.265275 -0.518627 -0.120348 -0.109165 -0.403458 0.123136 -0.284989 -0.219627 -0.949540 0.042889 -0.287296 0.155444 -0.669328 -0.444496 -0.306256 0.296781 0.136100 0.300018 -0.551714 0.018540 -0.085097 0.428795 -0.543169 0.537949 -0.231439 1.166585 -0.482193 0.247929 -0.210308 0.316693 0.300600 -0.655013 0.218935 0.085462 -0.735305 -0.878917 0.764708 -0.006113 -0.639715
and 0.425781 0.394437 0.263069 -0.328963 -0.556093 0.153298 -0.020411 -0.110831 -0.389318 0.277025 0.645687 0.082040 0.220854 -0.296003 0.010412 -0.561342 -0.291025 0.025242 -0.021914 -0.435674 0.308044 -0.934839 -0.913797 -0.324991 -0.004745 -0.439149 -0.908040 -0.263901 -0.055058 -0.295407 0.263730 -0.015087 0.427598 0.107613 0.314956 -0.499584 0.664861 0.383321 0.157657 0.052364 -0.278780 -0.167269 -0.014478 0.699874 0.275926 0.053828 -0.850859 0.399378 0.506566 0.252911
the 0.658260 -0.179277 -0.500779 0.159399 -1.261426 0.228460 0.274979 -0.425197 -0.510641 0.402366 0.278344 -0.232570 -1.061953 -0.371778 -0.063013 -0.702258 0.612060 0.175327 0.500130 -0.082117 0.540513 -0.923706 -0.258119 -0.517746 -0.242246 -0.361849 0.074411 -0.501778 0.598915 -0.420845 0.413900 -0.222465 0.324162 -0.745796 0.112206 -0.406980 0.405880 -0.691685 0.161430 0.766950 -0.114502 0.527256 0.026036 0.116087 0.066418 0.235041 -0.151556 -0.288912 0.909382 -0.552603
sorcerers 0.857615 0.438776 -0.002236 -0.011680 -0.369819 0.686569 0.087086 0.016588 -0.392695 0.958346 0.369553 0.123123 -0.491139 0.038582 -0.216340 -0.534229 0.549384 0.223282 0.440330 -0.063196 0.290893 -0.301170 -0.354603 -0.741695 -0.371340 -0.500719 -0.150381 -0.886850 0.049772 -0.017276 0.073868 -0.016857 0.810015 0.117342 0.241599 -0.535325 0.620873 0.164211 0.333370 -0.363642 0.441492 0.015454 -0.057652 -0.020571 -0.498498 0.072679 -0.433584 0.031944 0.357708 -0.087165
stone 0.803147 0.314185 0.186515 0.122395 -0.865418 0.756255 -0.042307 -0.452973 -0.632549 0.627636 0.762866 0.347892 -0.423992 -0.093163 -0.271504 -0.706600 0.484812 -0.285578 0.073388 -0.348262 0.687237 -0.417389 -0.323354 -0.584072 -0.070380 -0.069708 0.285700 -0.210134 0.533463 -0.174471 -0.678085 0.143630 0.758919 -0.152311 0.394538 -0.125725 0.506478 -0.300871 0.068502 -0.188374 0.437578 0.448773 -0.065023 0.272399 -0.188472 0.109644 -0.494915 0.419061 0.164507 0.045758
chapter 0.066924 0.144896 0.100922 -0.078109 -0.190971 0.034698 -0.192537 -0.278659 -0.120831 0.717412 0.395420 -0.218048 -0.080484 -0.091707 -0.234307 -0.333403 0.147720 0.050637 0.325106 -0.105892 0.105762 -0.718730 -0.428688 -0.574721 0.312905 -0.487426 -0.343959 -0.106093 0.295686 -0.467006 0.151874 -0.242466 0.419202 -0.032912 0.282641 -0.233047 0.592449 -0.212413 0.240986 -0.114967 0.005786 0.111911 0.092379 -0.027367 -0.065963 -0.128195 0.076338 0.539932 0.478846 0.211719
one 0.973100 0.239508 -0.082786 -0.428427 -0.634730 0.276328 -0.827033 -0.131445 -0.051344 0.893031 0.331105 -0.119332 -0.068931 -1.356717 -0.383521 -0.243836 0.247091 -0.341382 -0.149593 -0.891299 0.379128 -0.701064 -0.186901 0.209022 0.430589 0.007442 0.040710 0.038758 0.259360 -0.422098 0.273360 0.166712 0.770805 -0.153753 0.508352 -0.010860 0.473727 -0.460682 0.235986 -0.388956 -0.225410 -0.075592 -0.931729 0.045792 -0.275027 -0.015590 -0.022524 0.446657 0.383225 -0.693312
boy 0.616739 0.160004 -0.424325 -0.542639 -0.272933 -0.148898 -0.142874 -0.146134 -0.232047 0.658556 0.681388 0.340398 -0.636170 -0.260102 -0.215557 -0.122403 0.204679 0.087059 0.259557 -0.398476 0.217062 -0.300179 -0.747488 -0.161542 -0.171888 -0.319376 0.248860 -0.060135 0.123005 -0.342060 0.070580 0.251772 0.681199 -0.100103 0.332590 -0.146039 0.747360 -0.330753 0.488218 -0.329318 0.322799 0.012112 -0.388892 0.229089 -0.306383 -0.073117 -0.766922 0.303235 0.470605 0.382403
who 0.117657 0.057786 -0.495407 0.312300 -0.307168 0.106706 -0.236235 -0.565151 -0.378019 1.055251 0.383922 0.154275 -1.073424 -0.670218 -0.122759 -0.359658 -0.234819 0.005550 0.304573 -0.370194 0.095450 -0.214013 -0.606149 -0.230654 0.018576 0.012814 -0.355003 -0.178659 0.361134 -0.845655 -0.247692 0.566718 0.673975 -0.087217 0.997803 0.030227 0.595554 0.323902 0.115083 -0.234296 -0.126729 0.032425 -0.701686 -0.196181 -0.778723 -0.288095 -0.526997 0.702527 0.185870 0.024980
lived 0.811897 0.252299 -0.493509 -0.467889 -0.239147 0.017030 -0.183104 -0.155811 -0.221387 0.476164 0.327953 -0.166799 -0.751974 -0.002876 -0.304552 -0.187057 0.116001 -0.344187 -0.023450 -0.297847 -0.055474 -0.224541 -0.460830 -0.302531 -0.021316 -0.369377 -0.004007 -0.150359 -0.048582 -0.357690 0.020457 0.088872 0.942096 0.095589 0.266475 -0.130093 0.543436 -0.244587 0.122283 0.005605 0.063245 -0.222302 -0.173764 0.053953 -0.267106 0.211191 -0.513290 0.509903 0.269226 0.132340
mr 0.331836 0.499897 0.454566 0.433030 -1.138581 -0.490653 0.083955 -0.469321 0.020618 0.017370 0.290030 -0.218563 -0.170583 -0.074821 0.050341 -0.568231 -0.134682 0.097897 0.357666 -0.619355 0.113253 -0.640776 -0.096639 -0.252931 -0.356167 -0.582922 0.470801 -0.300091 -0.051441 -0.251853 0.230355 0.256731 0.998957 -0.335047 0.241936 -0.420075 0.543999 -0.271209 0.852351 -0.652774 0.213142 -0.223615 -0.915526 -0.067430 0.621900 -0.090921 -0.764062 0.901883 0.547755 -0.296787
mrs 0.078471 0.820720 0.078538 0.178845 -1.121910 0.158945 -0.201170 -0.078595 -0.127128 0.586421 0.458184 -0.019683 -0.302750 -0.412075 0.060530 0.228575 -0.126144 0.141884 0.042529 -0.722631 0.441502 -0.849154 -0.662090 -0.293368 0.039072 -0.248117 -0.094447 0.067631 -0.235257 -0.711514 0.406089 -0.238646 0.673233 0.303942 0.100908 -0.524061 0.347113 -0.034424 0.730841 0.047651 -0.113394 -0.353030 -0.581581 -0.113111 0.337914 -0.622602 0.017089 0.608423 0.168685 -0.465356
dursley 0.022836 0.466706 0.432327 -0.133588 -0.623580 -0.200513 -0.486464 -0.264823 -0.570211 0.333620 0.477644 0.062017 -0.383565 -0.464616 -0.031484 -0.155670 0.183048 -0.343486 -0.432798 -0.603442 0.110125 -0.319287 -0.746090 -0.426793 0.136246 -0.774701 -0.094083 -0.039416 0.015585 -0.215840 0.032080 -0.275350 0.620926 -0.468144 0.312498 -0.194273 0.927616 -0.507913 0.859286 -0.044476 0.607484 -0.290773 -0.560807 -0.170757 0.508685 -0.385727 -0.196969 0.499709 0.261436 -0.240665
of 1.208973 0.536106 -0.044357 0.359953 -0.878719 -0.027050 -0.456248 -0.091584 0.168008 0.449163 0.306736 -0.039679 -0.146415 -1.093685 -0.681795 -0.748324 0.420821 0.014843 0.375819 -0.170046 0.257737 -0.237398 -0.952590 -0.436376 -0.192230 -0.585138 0.076414 -0.420654 0.214484 -0.538097 0.743453 -0.001032 0.677357 -0.896292 0.692596 -0.640735 -0.055087 -0.790827 -1.221880 -0.244800 0.018438 0.100787 0.107427 0.846722 -0.547914 -0.089913 0.452944 -0.196811 0.142582 -0.485388
number 0.336660 0.317094 -0.252558 0.064025 -0.551620 0.718475 -0.295491 -0.357892 0.116558 0.983303 0.050777 -0.094293 -0.033432 -0.486271 0.140736 -0.221170 0.114126 -0.291362 -0.060621 -0.425296 0.466831 0.126172 -0.556242 -0.538645 0.264097 -0.138045 -0.183014 -0.448078 -0.308421 -0.275579 0.191406 0.184187 0.931612 -0.243453 0.492972 -0.370861 0.724542 -0.262465 -0.105113 -0.216355 0.213315 -0.078663 -0.269209 0.360259 -0.062524 0.143985 -0.317091 -0.036168 0.553680 0.143066
four -0.044356 0.366115 -0.041815 -0.235188 -1.013518 0.462402 0.045428 -0.111651 -0.151067 0.763845 0.175040 0.023914 -0.452767 -0.541453 0.218941 -0.232912 0.212121 -0.162830 0.515197 -0.652059 0.001793 -0.476351 0.128332 -0.183961 0.393232 -0.277017 -0.498036 -0.290010 0.430131 -0.209009 0.384750 0.146915 0.813638 -0.035991 0.422229 -0.262771 0.548939 0.227645 -0.142516 0.233113 0.170650 -0.115459 -0.366296 0.569938 0.231776 -0.102649 0.122427 0.448856 0.323828 0.089109
privet 0.168235 0.486311 -0.108298 -0.129811 -0.704731 0.631238 -0.412297 0.044759 -0.178638 0.574266 0.283996 0.152334 -0.312968 -0.370937 -0.162478 0.043790 0.029365 -0.342659 0.218399 -0.401550 0.699465 -0.480134 -0.466400 -0.512756 0.189606 -0.527749 -0.063357 -0.601843 -0.312255 -0.100275 0.421536 -0.216828 0.875304 0.039557 0.589580 0.240908 0.709595 -0.153133 0.511348 0.213215 0.310431 0.164685 -0.632030 0.331438 -0.105000 -0.070928 -0.261746 0.324175 0.033580 -0.354264
drive 0.575563 0.707740 -0.397440 0.029360 -0.375462 0.293002 0.096348 -0.015221 -0.479433 0.216397 0.067994 0.042951 -0.461840 -0.219560 -0.080994 -0.331175 0.283496 0.027375 0.088058 -1.025823 0.579850 -0.360495 -0.271507 -0.408262 0.271534 -0.214392 0.299903 -0.410763 -0.014642 -0.338219 0.598644 0.317488 0.747132 -0.626283 0.327751 -0.129573 0.440010 -0.612073 0.140458 0.213909 0.340937 -0.220632 -0.344979 0.231892 0.182978 -0.283647 -0.078931 0.374586 0.350865 -0.576373
were 0.217284 -0.067242 -0.099144 -1.049621 -0.966720 0.590062 0.099745 -0.302265 -0.036003 1.137964 0.367845 -0.119762 -0.186942 -0.314230 0.264552 0.221675 0.798000 -0.052528 0.511380 -0.401359 -0.032429 -0.501215 -0.660770 -0.384007 -0.003238 -0.962192 -0.853422 -0.156275 0.289401 -0.380044 0.054796 0.121638 0.769347 -0.380363 0.256589 -0.219905 0.680104 0.239059 -0.608164 -0.611992 0.043096 -0.504026 -0.021107 0.380076 0.537861 0.525264 -0.325580 0.530747 -0.551759 -1.011809
proud 0.509666 0.636203 -0.230498 -0.404014 -0.314132 0.193275 -0.062480 0.055614 -0.616975 0.915368 -0.028345 -0.117272 -0.356961 -0.292327 -0.451647 -0.129699 0.191910 -0.159568 -0.126756 -0.738610 0.155704 -0.373807 -0.371914 -0.141611 -0.098955 -0.040001 -0.300176 -0.277222 0.219260 -0.146675 -0.048789 -0.145818 0.707821 -0.281125 0.153115 0.008068 0.470839 0.111320 0.192049 -0.217554 -0.034243 -0.088553 -0.058650 0.237055 0.066836 -0.217470 -0.348976 0.501182 0.244069 -0.105363
to 0.266068 0.481634 -0.279840 0.050510 -0.507888 -0.344488 0.087987 0.177549 -0.369499 0.537188 1.253735 0.269259 -0.409478 -0.705418 -0.018432 -0.813629 0.762793 -0.193127 -0.037102 -0.444775 -0.054466 -0.289619 0.225558 -0.832651 0.400275 0.068120 -0.455254 -0.050625 0.747138 -0.629473 -0.242407 0.887144 1.429270 -0.142673 0.176346 0.336896 1.338259 0.118406 0.447320 0.010011 -0.250955 0.057681 -0.395095 0.248953 0.187635 -0.633918 -0.354357 -0.627357 -0.516013 0.066349
say 0.326230 -0.068024 -0.065625 -0.401281 -1.096227 0.281344 -0.436434 0.239251 -0.264297 0.655314 0.328445 0.231010 -0.426464 -0.167551 -0.281216 -0.299563 -0.045100 -0.385878 0.007320 -0.540082 0.295988 -0.360883 -0.288922 -0.223893 0.099574 -0.513756 -0.477056 0.293521 -0.066802 -0.709287 0.026581 0.659354 1.344049 -0.733531 0.441924 0.228397 0.719243 0.289061 0.284158 -0.367662 0.450834 -0.024929 -0.283771 -0.268000 -0.133483 -0.530516 -0.634580 1.117526 -0.267780 -0.575167
that 0.527935 0.158767 -0.226821 -0.020140 -0.433584 0.142911 -0.055896 -0.128906 -0.410769 0.372926 0.115516 0.404318 -1.077948 -0.853046 -0.304573 -0.313796 0.287057 0.204584 0.825698 -0.642593 -0.237602 -0.299812 -0.317396 -0.199366 -0.108571 -0.564499 -0.300213 -0.257538 0.247062 -0.796256 0.191086 0.227848 0.652912 -0.160947 0.372113 -0.382365 0.679327 0.009925 0.364635 0.427240 -0.349864 0.116043 -0.499104 -0.345504 -0.350063 -0.557665 -0.074937 0.901413 0.109016 -0.563703
they 0.336346 -0.406961 -0.008435 -0.726095 -0.276329 0.740311 0.062078 -0.531774 -0.467271 0.484211 0.128170 0.377174 -1.183709 -0.731353 -0.022253 -0.845343 0.198969 0.124272 -0.046378 -0.466637 0.029509 -0.017053 -0.839699 -0.696191 -0.000136 -1.208725 -0.611169 -0.007235 0.523187 -0.337160 0.841907 -0.175616 1.284132 -0.554077 -0.372856 0.160157 1.035919 0.020229 -0.255530 -0.168990 -0.564981 -0.388031 -0.415995 -0.571746 1.442252 -0.265907 -0.739685 0.009244 0.024812 -0.017464
perfectly 0.643136 0.384160 -0.147881 0.394846 -0.279173 0.301161 -0.000466 -0.707342 -0.164537 0.682248 0.526906 0.165284 -0.463203 0.081155 -0.368615 -0.383456 -0.245651 -0.067253 -0.529799 -0.485957 0.464432 -0.099620 -0.511703 -0.140856 -0.295235 -0.154909 -0.235336 -0.281865 -0.251866 -0.214112 0.131093 -0.253680 0.519905 -0.122075 0.334763 -0.130218 0.586558 -0.013834 -0.120362 -0.345793 0.294363 0.345518 -0.213587 0.194761 0.345332 -0.055745 0.033800 0.432981 0.138131 -0.159965
normal 0.298489 0.401710 0.017333 -0.288751 -0.583054 0.053362 -0.129094 0.077358 -0.312824 0.363937 0.566309 0.293034 -0.473406 -0.123719 0.043109 -0.177802 0.539338 -0.045264 -0.082810 -0.773573 0.394642 -0.032734 0.087099 -0.506954 0.223997 -0.565699 0.075264 0.144247 0.333230 -0.178181 0.251009 0.267992 0.849142 -0.435115 0.246553 -0.446970 0.485025 0.055150 -0.151039 -0.423120 -0.132664 -0.235508 -0.233861 -0.108955 -0.231732 -0.425974 -0.081837 0.613040 0.261373 0.055119
thank 0.077521 0.114921 -0.074007 -0.280770 -0.696859 0.065129 0.311124 0.023568 -0.111752 0.255202 0.154644 -0.093405 -0.690715 -0.176262 -0.171281 -0.332684 0.116223 -0.166883 -0.095283 -0.413054 0.334383 -0.275141 -0.166458 0.028286 0.076093 -0.426566 -0.166875 0.031228 -0.109877 -0.297937 -0.171412 0.182526 0.852133 -0.557614 0.646476 -0.442106 0.534227 0.054870 0.006902 0.011261 0.067259 -0.404636 -0.068365 0.355574 -0.059228 -0.338425 -0.391738 0.481839 0.060680 -0.253340
you 0.266658 -0.374009 0.176965 0.157830 -0.439648 0.919427 0.127258 -0.086988 0.059819 0.768535 0.349810 0.121708 -0.871228 -0.430189 -0.514110 -0.654619 0.451878 -0.058426 -0.381894 -0.864649 -0.458420 -0.425421 -0.430372 -0.468458 -0.351466 -0.025719 0.219236 0.111598 0.590673 -0.570668 0.005604 0.097328 1.854635 -0.335608 0.597058 0.197423 0.609562 -0.002655 0.274397 -0.573578 -0.149996 -0.269132 -0.991799 0.406024 -0.472963 -0.739247 -0.876310 0.829035 -0.084809 -0.430424
very 0.824235 0.851495 -0.476518 0.380239 -0.569417 0.044471 -0.624455 -0.303446 -0.659560 0.574055 0.276993 -0.019005 -0.705072 -0.455225 -0.180622 0.605559 0.184413 -0.011388 0.239449 -1.060113 0.142323 -0.124637 -0.469085 -1.122993 0.032179 -0.400110 -0.308493 0.476092 0.297391 -0.419021 0.077867 -0.132418 0.569723 -0.152768 0.433882 -0.614915 0.357969 0.034314 0.226783 -0.149952 -0.129748 -0.349666 0.101654 0.074586 -0.317904 -0.078127 -0.266451 0.343926 -0.088123 -0.169271
much 0.701451 0.179459 -0.224809 -0.520125 -0.601747 0.085783 -0.155530 -0.126001 -0.122990 0.468925 0.442514 0.185522 -0.669957 -0.459807 0.077960 -0.707596 0.088375 -0.265086 0.151439 -0.761997 0.079942 -0.419003 -0.054086 -1.113427 -0.165026 -0.082743 -0.599604 0.049578 0.293850 0.133241 0.538952 0.711831 1.387064 -0.018464 -0.196698 -0.503625 0.632631 0.375565 0.113090 -0.551709 -0.062764 0.109006 -0.227372 -0.795328 0.034062 -0.516269 -0.260125 1.010498 -0.076229 -0.130251
last 0.888082 0.227877 -0.431176 -0.765427 -1.098669 -0.196476 -0.404522 -0.767970 -0.182230 0.773553 0.292971 -0.327778 -0.164110 -0.675602 0.151685 0.197313 -0.124805 0.055963 0.410491 -0.870824 0.416101 -0.637487 -0.070012 -0.339416 -0.083685 -0.022956 -0.284965 -0.263335 0.083492 -0.676851 0.645505 0.372015 0.930763 -0.244853 0.316400 -0.194009 0.372572 -0.048978 0.099927 0.021900 -0.105957 0.332492 -0.501766 -0.032130 -0.141742 -0.091864 -0.302137 0.273738 0.652596 -0.091666
people 0.607528 -0.124035 -0.161908 -0.558154 -0.632941 0.587847 -0.078854 -0.110997 -0.330433 0.497116 0.330109 0.099367 -0.565615 -0.717946 -0.060837 -0.279892 0.327622 -0.063134 0.067209 -0.536606 -0.087201 0.075883 -0.537820 -0.485129 -0.106982 -0.012487 -0.212294 0.193026 0.264199 -0.675193 0.465107 -0.119989 0.921793 -0.282454 0.278974 -0.503313 0.566983 -0.201127 -0.092891 -0.019787 0.082617 -0.324338 -0.419394 0.406855 -0.142377 -0.481157 -0.271097 0.401287 0.585985 -0.377241
youd 0.859921 -0.024978 -0.091784 -0.126794 -0.400873 0.150769 -0.177913 -0.194141 -0.472908 0.558736 0.315067 0.370993 -0.587384 -0.082871 -0.152964 -0.669894 0.208611 -0.043708 0.147792 -0.244306 -0.026688 -0.525458 -0.034360 -0.193715 -0.285630 -0.531002 -0.154509 -0.090228 0.084046 -0.550088 -0.028198 0.141591 1.227914 -0.596092 0.512638 0.055577 0.736558 -0.027858 0.277018 0.097580 0.063003 -0.173429 -0.097398 0.049795 -0.209624 -0.659276 -0.547634 0.413666 -0.069888 -0.360652
expect 0.454737 -0.000544 -0.326401 -0.251113 -0.557675 0.135335 -0.390801 -0.126909 -0.337674 0.547647 0.216966 -0.065080 -0.651472 -0.264448 -0.253494 -0.549685 0.095755 -0.142393 -0.143103 -0.350450 0.104395 -0.372275 -0.095321 -0.126338 -0.205860 -0.353684 -0.359094 -0.119094 0.015836 -0.905649 -0.358348 0.281717 1.110023 -0.474574 0.432481 -0.138600 0.623994 0.018249 0.287664 -0.113357 -0.125989 -0.274025 -0.467998 0.014081 -0.098975 -0.399329 -0.028607 0.611246 0.089790 -0.086379
be 0.583328 0.122427 -0.827025 0.043519 -0.896686 0.298470 -0.560212 -0.381084 0.961901 0.661466 0.470678 0.101180 -0.473653 -0.637463 -0.332372 -0.082332 0.237318 0.040454 0.222645 0.073997 -0.353552 -0.494377 -0.203764 -0.505709 0.680189 -0.949847 0.164963 0.690757 0.640507 -0.388763 0.106805 0.793223 1.405936 -0.056202 0.710918 -0.500299 0.479163 -0.448214 1.210007 -0.076188 0.404763 -0.812169 -0.002832 0.397055 0.526038 -0.622976 -0.311164 1.029658 -0.265711 -0.693122
involved 0.160747 0.424911 -0.390319 -0.186069 -0.816740 -0.200974 -0.020310 -0.328431 -0.469859 0.254847 0.349906 0.117185 -0.444129 -0.387355 0.007812 -0.030954 0.242309 -0.204885 0.001444 -0.238426 0.038145 -0.408021 -0.167062 -0.589806 -0.219179 -0.489959 0.178783 -0.086835 0.095047 -0.294794 0.358648 0.076225 0.612709 -0.053315 0.707162 0.123574 0.266500 -0.138316 -0.013019 0.266739 0.228780 -0.312810 -0.231829 -0.343914 0.071677 -0.328219 -0.163895 0.484201 0.373799 -0.002044
in 1.107210 0.316400 -0.385187 0.420190 -0.991212 -0.430593 -0.434123 -0.287415 -0.609027 0.362752 0.284491 0.172446 -0.399886 0.011096 0.536960 0.009183 0.092675 0.215482 0.804240 -0.183815 0.143195 -0.796014 -0.086146 0.033395 -0.586215 -0.455403 -0.466336 -0.014412 0.494741 -0.706703 0.663928 0.093074 0.512253 -0.423731 0.534987 -0.294502 0.880871 -0.766603 -0.972752 0.002536 -0.426477 0.280994 0.162955 0.732419 0.368826 -0.723129 -0.192211 0.007825 0.292014 -0.171078
anything 0.565111 0.043223 -0.470719 -0.336253 -0.437544 0.737661 -0.231272 -0.559169 -0.094114 0.728965 0.357783 0.212184 -0.841491 -0.685354 -0.164978 -0.674184 0.235463 -0.524048 0.049959 -0.489241 0.283050 -0.316733 -0.107653 -0.197238 0.307405 -0.373748 -0.099080 -0.129533 0.297882 -0.436488 -0.167281 0.285598 1.739978 -0.253722 0.481888 -0.020247 0.675683 -0.131117 0.565111 0.407822 0.218970 0.440651 -0.988384 -0.403975 0.127512 -0.598594 -0.493719 0.614707 -0.572444 -0.431022
strange 0.729834 0.459845 -0.146332 -0.037265 -0.198339 -0.066899 0.041380 -0.117789 -0.336505 0.603059 0.629953 0.006680 -0.298701 -0.566800 0.022511 -0.459171 0.033710 0.002526 -0.095551 -0.672488 0.027726 0.032590 -0.051955 -0.110693 0.032453 -0.413644 -0.141723 0.233929 0.230480 -0.369422 0.322174 -0.040992 0.874092 -0.086870 0.392948 -0.151259 0.603082 -0.026953 -0.190302 -0.062246 0.215468 0.196378 -0.532496 0.104358 0.132317 -0.180872 -0.161613 0.870815 0.296548 -0.245941
or 0.298686 0.125691 0.154219 -0.361760 -0.409455 0.203062 -0.392211 0.094499 -0.561015 0.506525 0.169170 -0.110230 -0.610471 -0.533853 -0.219064 0.183399 0.205817 0.121711 0.090553 -0.618384 0.231156 0.065381 0.095406 -0.329406 0.307977 -0.506634 -0.381138 0.205230 0.150209 -0.818989 0.506224 0.129307 1.168818 -0.227828 0.754835 -0.343996 0.352004 0.217351 0.179119 -0.257537 -0.420352 0.224419 -0.099996 -0.045946 0.048227 -0.572750 -0.016617 0.388462 -0.016868 -0.329658
mysterious 0.036258 0.563582 -0.096964 0.180678 -0.251688 -0.083767 -0.291719 -0.056370 -0.273518 0.822769 0.515672 -0.007030 -0.362363 -0.380556 -0.059865 -0.110839 -0.044659 -0.312237 -0.043226 -0.292397 0.286596 -0.089350 0.046350 -0.309123 -0.005812 -0.353911 -0.260328 -0.100515 0.397890 -0.473773 -0.079909 -0.076622 0.794461 -0.012158 0.549445 -0.229801 0.742246 0.449468 0.158862 0.241758 -0.189662 -0.323553 -0.292957 0.078822 -0.001066 -0.082407 0.040308 0.275643 0.510267 -0.006922
because 0.594002 0.278524 -0.368831 -0.391067 -0.351863 0.318349 -0.572943 -0.295489 -0.402831 0.554979 0.125678 0.178921 -0.437625 -0.156104 -0.120441 -0.104043 -0.167403 -0.343251 0.218101 -0.848934 0.567643 -0.056827 -0.229962 -0.316172 0.267994 -0.874062 -0.593251 0.076201 0.321410 -0.030009 0.162260 0.108587 0.915863 -0.329709 0.798150 0.038295 0.741430 0.246863 0.054659 0.174104 -0.437613 -0.471536 -0.287311 -0.338028 -0.277486 0.139584 -0.341553 0.589189 0.172615 0.024978
just 0.928616 -0.415204 -0.199302 0.005708 -0.443144 -0.225702 -0.410560 -0.239286 -0.665084 0.638342 0.309984 0.277821 -0.655173 -0.553980 -0.280605 -0.466284 0.049361 -0.594084 0.160334 -0.758179 0.381766 -0.209664 -0.295952 -0.560136 -0.016242 -0.168218 -0.549068 0.234454 0.287667 -0.639423 -0.044233 0.404242 0.819028 -0.343641 0.494641 -0.228905 0.700145 0.078968 0.272450 -0.663845 0.144271 -0.371131 -0.622523 -0.454440 -0.029585 0.047693 0.128724 0.596911 0.084073 -0.323412
didnt 0.514367 0.154002 0.186202 -0.089958 -0.854348 0.082893 0.153354 -0.501019 -0.636510 0.421289 0.391480 0.445230 -0.614486 0.155904 -0.181285 -0.276525 0.883441 0.104741 -0.442846 -0.681314 0.231195 -0.071168 -0.312233 -0.558299 0.041377 0.061300 -0.172158 -0.120853 -0.002383 -0.898519 -0.145984 0.946823 1.075555 -0.689689 0.187367 -0.287089 1.067682 -0.175875 -0.040113 -0.141860 -0.855917 0.356303 -0.839490 0.004023 -0.201027 -0.090072 -0.994348 0.718311 -0.089797 -0.425462
hold 0.542503 0.450411 -0.442023 -0.131243 -0.508463 0.287995 -0.133725 -0.212211 -0.068436 0.515235 0.492629 0.200460 -0.580979 -0.292320 -0.203822 -0.296343 0.137256 -0.398944 -0.139544 -0.516372 -0.073100 -0.352552 -0.404580 -0.378522 0.016567 -0.151951 -0.488732 -0.153623 0.040105 -0.370153 0.105398 0.112448 0.931615 -0.573451 0.503220 -0.118962 0.727343 -0.024581 0.057478 -0.128423 0.216558 -0.270132 0.030238 0.423330 -0.119125 0.080567 -0.153153 0.202039 -0.051773 -0.222123
with 0.466425 0.271740 -0.126058 0.039690 -0.673623 -0.417460 -0.303247 -0.308536 -0.776504 0.601913 0.106726 0.237053 -0.733091 -0.193137 0.348238 -0.220093 0.004851 0.306883 0.372439 -0.300291 -0.142058 -0.861517 -0.236385 -0.586519 -0.145683 -0.660104 -0.200194 -0.032965 -0.071538 -0.916259 0.468011 0.063957 0.527024 -0.302438 0.559713 -0.567209 0.742037 0.221961 -0.470324 -0.371143 -0.121694 -0.223683 0.200389 0.713365 -0.459021 0.543477 0.214351 -0.121261 -0.152679 -0.409952
such 0.813358 0.382210 -0.563237 -0.084408 -0.432308 0.147370 -0.108905 -0.141280 -0.452279 0.538828 0.210641 0.015675 -0.281751 -0.096773 0.041112 -0.480283 0.137641 -0.131910 0.327696 -0.617440 0.040228 -0.152703 -0.297221 -0.111263 -0.139918 -0.711077 -0.329727 0.361587 0.023832 -0.351560 0.093635 0.156551 1.103720 -0.146361 0.597368 0.093742 0.470827 -0.083828 0.226716 -0.297355 0.168752 -0.174974 -0.551692 -0.258311 0.131505 -0.105748 0.237625 0.479867 0.235718 -0.292427
nonsense 0.274817 0.277102 0.163084 -0.324263 -0.233625 0.248523 -0.194148 -0.345580 -0.289363 0.496843 0.395978 0.286987 -0.215091 -0.036377 -0.201738 0.047164 0.094761 -0.062149 0.240912 -0.511876 0.318804 -0.095934 -0.003642 0.016930 0.206556 -0.465988 -0.192791 -0.374029 0.099428 -0.100252 -0.168369 0.196773 0.542514 0.047483 0.273807 0.092752 0.537111 0.252768 -0.101819 -0.211835 0.078838 -0.224891 -0.186309 0.232617 -0.230932 -0.216738 -0.059356 0.399711 0.388231 0.084831
was 0.224501 0.232840 -0.232319 -0.030740 -0.700826 -0.026549 -0.462390 0.059598 -0.246954 1.323404 0.649048 0.196877 -0.130548 -0.468826 0.278752 0.053577 0.751092 -0.240203 1.401804 -0.200469 0.234761 -0.252071 -0.172040 -0.983243 0.387547 -0.554734 -0.293593 0.165213 -0.088297 0.150077 0.293283 -0.007072 0.473951 -0.192458 0.862827 -0.536812 0.870120 -0.360707 -0.077012 -0.267012 -0.860368 -1.025458 -0.238127 -0.050316 -0.122166 0.216833 -0.698373 0.534781 -0.123415 -1.085925
director 0.140748 0.330525 -0.074581 -0.204661 -0.336967 0.017436 -0.368227 -0.014853 0.093228 0.610025 0.109998 -0.269991 -0.441356 -0.034281 0.190830 -0.189200 0.263464 -0.005155 0.187471 -0.387935 0.316461 -0.054381 -0.277292 -0.118933 0.024024 -0.165829 0.012472 0.038655 -0.159506 -0.286804 -0.160494 -0.025254 0.354694 0.116635 0.234145 -0.320809 0.665684 0.102790 -0.136233 -0.138160 0.288929 0.024004 -0.179945 0.182776 -0.101515 0.097746 0.092934 0.212778 0.119990 -0.000250
a 0.554849 0.621579 -0.511038 0.839673 -0.920071 0.370111 -0.222241 -0.697968 -1.006556 -0.007750 0.625465 0.052138 -0.241741 -0.777406 0.018551 0.085778 0.110295 0.181921 0.357346 -0.296710 0.700524 -0.492245 0.036177 -0.831624 -0.190349 -0.634778 -0.564821 0.515534 -0.471666 -0.322456 0.199691 0.425581 1.191313 -0.268741 -0.150073 -0.261562 -0.143328 0.429588 -0.627974 -0.304694 -0.752427 -0.231001 -0.450350 0.487805 0.269039 -0.218853 0.348223 0.460484 0.874777 -0.408701
firm 0.525040 0.174108 -0.028552 -0.021741 -0.406125 0.043364 0.244335 0.093197 -0.029443 0.052502 0.202801 -0.236584 -0.391224 -0.293578 0.223613 0.024422 0.053787 -0.176018 0.383389 -0.342347 -0.027152 0.001408 0.248214 -0.316682 0.152642 0.138981 -0.370798 0.114023 0.092405 -0.148629 0.149171 0.271890 0.548910 -0.093092 0.571981 -0.442267 0.598857 -0.010875 -0.124645 0.034390 0.058412 0.088387 0.083766 -0.052355 -0.114072 -0.128726 0.215072 0.180644 0.193564 -0.017885
called 0.733994 0.336529 0.074233 -0.341582 -0.296865 0.085635 0.022618 0.025452 -0.178219 0.461674 0.234277 0.438318 -0.560736 -0.130390 0.245615 -0.239921 0.243166 -0.193991 0.088943 -0.699423 0.252319 -0.181706 0.000738 -0.647330 -0.001505 -0.044299 0.108019 0.033426 0.001934 -0.353151 0.139250 0.117049 0.420513 -0.373630 0.805403 -0.221542 0.905090 0.112281 0.091381 -0.215320 0.034771 -0.138088 -0.373570 0.178317 -0.195095 -0.683720 -0.327384 0.660826 0.441087 -0.091426
grunnings 0.251953 0.498002 -0.238201 -0.045602 -0.656365 0.004934 -0.012621 -0.169471 0.051052 0.337494 0.353395 0.052204 -0.294397 0.173842 0.146442 -0.148625 0.045400 0.021642 -0.257307 -0.379034 0.194059 -0.252055 -0.332619 -0.595028 0.128301 -0.215750 -0.368543 0.020610 0.214340 -0.017578 0.169208 0.014572 0.224941 0.095165 0.045315 0.031615 0.162725 0.146105 0.381035 -0.226890 0.009202 -0.072653 0.088026 -0.077921 -0.156147 -0.036209 -0.094945 0.123675 0.345009 -0.091859
which 0.511095 0.082851 -0.301973 0.051020 -0.483630 0.163636 -0.111816 -0.057098 -0.436304 0.667498 0.431152 0.190387 -0.386761 -0.329465 0.319843 -0.365378 0.027309 -0.049121 0.483359 -0.381357 0.099651 -0.365862 -0.137715 -0.533101 0.233071 -0.568931 -0.383413 -0.300143 0.533392 -0.052138 0.258747 -0.214458 0.642883 -0.173366 0.226027 -0.177862 1.093714 0.441093 -0.231339 -0.014433 -0.252508 -0.040213 -0.180522 -0.266417 -0.241488 -0.625634 0.206311 0.267179 0.485781 0.064497
made 0.973978 0.331995 0.000340 0.193142 -0.203778 -0.013097 -0.247218 -0.390865 -0.496503 0.719335 0.079876 0.433139 -0.127905 -0.573283 -0.003106 -0.489349 0.581214 -0.254739 -0.013825 -0.899290 0.197273 -0.206948 -0.425365 -0.651948 0.310220 -0.282451 -0.472568 0.165274 -0.110465 -0.415366 0.547997 0.303198 0.704670 -0.437641 0.613000 -0.056241 0.505091 -0.379163 -0.009889 -0.017445 -0.195229 -0.250828 -0.280347 0.452973 -0.282632 -0.409477 -0.196969 0.365146 0.157262 -0.081066
drills 0.648358 0.592161 0.083705 0.178063 -0.567806 0.256731 -0.088972 -0.441798 -0.078207 0.642769 0.590319 0.066395 -0.428689 -0.191148 -0.226699 -0.185472 -0.050885 -0.195492 0.213849 -0.268332 0.019010 0.093736 -0.343255 -0.376987 0.067269 -0.303391 -0.039049 -0.266780 -0.067881 -0.003154 0.001276 -0.007425 0.304975 -0.371366 0.368756 -0.555871 0.671302 -0.048181 0.159787 -0.184511 0.101778 -0.513166 -0.263354 -0.033511 -0.295628 -0.111851 -0.214903 0.268748 0.633245 0.452533
he 0.487084 -0.118756 -0.404774 0.084112 -0.177105 0.100587 -0.346518 0.115298 -0.408578 0.544073 -0.024038 0.496021 -0.902147 -0.637208 -0.098842 -0.698784 -0.329330 0.255184 0.266988 -0.615836 0.231006 0.004939 -0.954313 -0.653660 0.470261 -0.511387 -0.685529 -0.049968 -0.074617 0.062368 0.180453 0.393141 1.213762 -0.614609 0.507948 -0.272731 0.919407 -0.402288 -0.142947 0.441891 -0.529011 -0.346732 -0.832287 -0.756395 0.159693 0.126079 -0.597793 0.390310 0.104901 0.336551
big 0.593722 0.541252 0.016054 -0.366092 -0.688158 0.558464 -0.060884 -0.121469 -0.558120 0.379128 0.449089 0.175009 -0.343990 0.065978 0.159555 0.213654 0.079433 -0.099111 0.448407 -0.899549 0.153005 -0.331849 -0.233239 -0.365789 0.311408 -0.187514 -0.143354 0.137409 0.171064 -0.229048 0.255259 0.309338 1.065998 -0.071498 0.430173 -0.447316 0.233983 -0.035262 0.156059 -0.200289 0.291611 -0.214716 -0.528543 0.227900 -0.582198 -0.298665 -0.216264 0.257008 0.272972 0.031889
beefy 0.343650 0.376953 0.137959 0.286621 0.011603 0.042220 0.338445 -0.070657 -0.040011 -0.059265 0.231922 0.160903 -0.350536 0.038947 0.238157 0.019757 0.229830 -0.010380 -0.042654 -0.332219 -0.181499 -0.405315 0.236902 -0.155640 -0.179732 0.012237 0.323386 -0.088959 -0.174421 -0.051673 0.110593 0.204731 0.686248 0.311500 0.327104 0.026565 0.110026 -0.032564 0.341667 -0.272472 0.104590 -0.118973 0.145849 0.161682 0.180290 -0.096952 0.088572 -0.064089 0.440260 -0.124792
man 0.285747 0.831552 -0.243288 -0.380168 -0.864536 0.040166 -0.193104 -0.087096 -0.159728 0.671978 0.673293 0.441232 -0.338186 -0.313711 -0.014419 0.065446 0.151238 0.241475 0.102629 -0.791865 0.466813 -0.199598 -0.558579 -0.526699 -0.315110 -0.205673 0.138185 0.067264 0.251793 -0.220846 -0.003591 -0.032011 0.980343 -0.089044 0.327858 -0.065020 0.512864 -0.168866 0.097897 -0.301494 0.205230 -0.060139 -0.240759 0.063356 0.005053 -0.008981 0.054196 0.279480 0.371564 0.119610
hardly 0.784028 0.259316 -0.180714 -0.048799 -0.352368 0.281465 -0.350547 -0.424064 0.112797 0.835872 0.391431 0.191177 -0.462493 -0.205522 -0.226155 -0.081698 -0.261600 -0.076681 -0.085097 -0.759451 0.521391 -0.446581 -0.640639 -0.291966 0.008532 -0.042771 -0.193151 -0.237849 -0.320665 -0.155848 0.350563 0.218105 0.988536 -0.506271 0.315968 0.027559 0.486471 0.013370 0.370136 0.002097 0.269995 -0.498321 -0.227028 -0.055513 0.156456 -0.267752 -0.596460 0.660229 0.068565 -0.251520
any 0.452873 0.268876 0.076212 0.100841 -0.608270 0.175681 -0.244884 -0.387855 -0.348492 0.624640 0.529021 -0.255738 -0.388139 -0.689406 0.145085 -0.780705 0.170626 -0.619386 0.100695 -0.643895 0.245639 -0.330206 -0.209521 -0.324763 0.139759 -0.282573 -0.412385 -0.220761 0.430777 -0.245506 0.089485 0.136908 1.178440 -0.633410 0.151621 0.052206 0.217075 -0.401163 0.415609 -0.248592 -0.066008 0.150286 -0.250308 -0.021750 -0.143115 -0.226710 -0.142722 0.524594 0.310662 -0.505423
neck 0.625398 0.348568 0.304241 -0.276987 -0.371667 -0.126197 -0.248289 -0.000348 -0.303545 0.848834 0.527382 0.368620 -0.309121 -0.233012 0.223716 -0.317286 0.041924 -0.251181 -0.202822 -1.031780 0.241029 -0.399175 -0.258938 -0.324948 0.220679 -0.575598 -0.047553 -0.174197 0.021410 -0.626696 0.316162 0.107731 0.585688 -0.431518 0.208313 -0.147967 0.711846 -0.125458 -0.245487 0.175120 -0.025233 -0.084816 -0.313093 0.327223 0.014864 0.574952 0.012446 0.159183 0.679040 -0.169270
although 0.537533 0.183688 -0.330214 -0.176494 -0.206643 -0.255111 0.216470 -0.268498 0.182070 0.606048 0.449318 0.139613 -0.540036 -0.382634 -0.229708 -0.218596 0.145035 -0.660570 -0.121911 -0.528361 0.398923 -0.145526 -0.272835 -0.128720 0.139323 -0.464693 -0.095078 -0.043257 0.130177 -0.635116 0.330714 -0.035182 1.098594 0.232343 0.583035 -0.090910 0.279933 0.019863 0.289267 -0.148634 0.040871 -0.127317 -0.159552 -0.141162 0.019011 -0.051255 -0.444503 0.688830 0.236422 0.052138
did 0.740456 0.137882 -0.171527 -0.255751 -0.784315 0.414866 -0.064999 -0.419517 -0.332842 1.013979 0.112736 0.359493 -0.897208 0.119333 -0.114717 -0.571467 0.724087 -0.111604 -0.293124 -0.845368 0.178490 -0.071959 -0.319397 -0.830017 -0.417967 -0.346566 -0.011104 -0.216666 0.315292 -0.517679 -0.163286 0.464006 0.980331 -0.763029 0.417368 -0.214132 0.531240 -0.108815 0.148527 -0.128094 -0.408190 0.268665 -0.338937 0.059853 -0.191414 -0.193443 -0.572122 0.555624 -0.334279 -0.852129
have 0.956320 0.054716 -0.647336 -0.509379 -0.291326 0.223207 -0.278900 0.147710 -0.121497 0.302853 -0.121372 0.006002 -0.526675 0.035236 -0.377790 -0.565994 -0.134874 0.241861 0.553641 -0.671531 0.130953 -0.152182 0.001110 -0.618938 0.525412 -0.933735 0.390884 0.046115 0.374587 -0.646450 0.289472 0.761110 1.117964 -1.026579 0.270242 0.463671 0.785548 0.515449 0.738417 0.102634 0.252054 -0.210998 -0.542094 0.238991 0.084935 -0.608974 0.169471 1.244334 0.059662 -0.845897
large 0.996846 0.729735 -0.381550 -0.188501 -0.316843 0.110672 0.321851 -0.368936 -0.422112 0.213431 0.591675 -0.043920 -0.216170 -0.301468 0.223198 0.186510 0.445673 0.029566 0.508320 -0.562612 0.207274 -0.423547 -0.509920 -0.632358 0.136287 -0.596811 0.144312 0.254077 -0.528239 -0.317274 0.292024 0.068941 0.922601 -0.045579 0.274745 -0.076698 0.177034 0.189102 -0.138904 -0.293883 0.097906 -0.361175 -0.352325 0.331970 -0.009022 0.123499 0.064392 0.162484 1.050400 0.037596
mustache 0.330513 0.215507 0.021343 -0.220374 -0.610162 0.514246 -0.132926 -0.170720 -0.258807 0.634107 0.422361 0.343652 0.161992 -0.175623 -0.057223 -0.115359 0.256922 -0.069514 0.028268 -0.243326 0.113820 -0.489658 -0.420369 -0.279321 0.138924 -0.406885 -0.341920 -0.106723 0.015920 -0.477189 0.167693 0.338488 0.734428 -0.071111 0.413356 -0.028663 0.698203 0.130981 0.012093 0.107756 0.054538 -0.167091 -0.277328 0.011613 0.163278 -0.160832 -0.237900 0.268304 0.412407 -0.118775
thin 0.653326 0.620884 -0.138995 -0.139775 -0.486352 0.274001 -0.462533 -0.100742 -0.303828 0.417538 0.542201 -0.031972 -0.357574 -0.103202 0.099038 -0.186434 0.369632 0.186645 0.407312 -0.417436 0.242238 -0.409916 -0.853159 -0.739299 0.141102 -0.495850 0.064671 0.311520 0.178877 -0.461377 0.250389 0.050083 0.517794 -0.033045 0.244275 -0.610720 0.335668 -0.065948 -0.111780 -0.089712 0.442867 0.300772 -0.083455 0.271097 -0.126215 0.084467 -0.121620 0.300679 0.414452 -0.062910
blonde 0.253292 0.381210 0.070275 -0.281020 -0.784915 -0.130511 -0.192357 0.074555 -0.019574 0.546545 0.199221 0.056250 -0.220596 -0.398752 -0.347343 -0.049021 -0.164237 -0.262424 -0.036254 -0.303001 0.476751 -0.175317 -0.477711 -0.157175 0.019261 0.091252 0.023355 0.077452 0.198355 -0.179529 0.237720 0.196471 0.394223 -0.419566 0.311295 -0.033905 0.138582 -0.022053 0.037117 0.009083 -0.120414 -0.181831 -0.211785 0.351232 0.276611 -0.342589 -0.006394 0.190046 0.095824 0.083131
had 1.001819 0.009787 -0.270058 -0.122686 -0.062493 -0.191049 -0.236041 -0.217376 -0.875737 0.882669 0.030323 0.094851 -0.138959 -0.034596 0.321748 -0.353708 0.439418 -0.142600 0.602304 -0.992023 0.744090 -0.491459 -0.561927 -0.497988 0.449254 -0.378855 -0.560658 -0.520421 -0.391466 -0.822523 0.324649 0.586457 0.828807 -0.128172 0.361902 0.855822 0.729213 -0.946107 0.634719 -0.218984 -0.378729 -0.316688 -0.623990 -0.127958 0.536507 0.103825 0.707474 0.659415 -0.190506 -0.943057
nearly 0.802095 0.251132 -0.416719 -0.052727 -0.401591 0.253571 -0.209996 -0.334626 -0.263082 0.370175 0.449868 0.116346 -0.097121 -0.354341 -0.101344 -0.436345 -0.120887 -0.020493 -0.208056 -0.716808 0.086040 -0.358994 -0.271943 -0.022805 -0.078728 -0.615364 -0.325976 -0.110972 -0.244786 -0.811386 0.053963 0.332618 0.374944 -0.122184 0.639788 -0.392652 0.781159 0.473261 -0.020799 -0.072002 0.224206 -0.048151 -0.723687 -0.022125 -0.032151 -0.081888 -0.182068 0.666502 0.225179 -0.075175
twice 0.594134 0.197462 -0.052812 0.259414 -0.377344 0.117306 0.063277 -0.412155 -0.605812 0.634084 0.422842 0.157559 -0.372788 -0.017212 0.322039 -0.123585 0.187667 0.030129 0.125534 -0.824432 0.105853 -0.247746 -0.102084 -0.444781 -0.141772 -0.642271 0.010204 -0.126950 -0.067167 -0.528203 0.718823 0.107083 0.531655 -0.048349 0.549265 0.060938 0.893243 -0.267529 0.280155 0.169577 0.181758 -0.219471 -0.318085 -0.102518 -0.208043 0.028724 0.035328 0.495792 0.233703 0.054777
usual 0.682820 0.092543 0.106091 -0.366396 -0.470951 0.223963 -0.364313 0.007147 -0.450814 0.670621 0.145129 0.197919 -0.691304 0.161129 0.149779 -0.079978 0.024259 -0.277672 -0.226104 -0.137193 0.823744 -0.416556 -0.364958 -0.876345 0.203159 -0.198077 -0.147398 -0.073652 -0.011245 -0.476525 0.819409 0.413584 0.695591 0.162826 0.736609 -0.624825 0.581606 0.120395 0.036170 0.089735 -0.076655 -0.242832 -0.276885 -0.167859 0.084962 0.114252 -0.250162 0.043836 0.374847 -0.212583
amount 0.115432 0.094221 -0.016176 0.325612 -0.274364 0.050203 0.422169 -0.341443 0.080375 0.164101 0.185301 0.207637 -0.118331 -0.382363 -0.211339 -0.125468 0.323576 0.187808 -0.180933 -0.071119 -0.005945 0.121968 -0.543542 -0.221002 0.146954 0.018863 -0.120774 -0.390460 0.192015 -0.206349 -0.089259 -0.123875 0.750481 0.043283 0.584566 -0.128333 0.424486 0.060873 0.064593 0.065005 -0.036112 0.017315 -0.066950 -0.197120 -0.035346 0.233500 0.109601 0.511294 0.083128 0.192641
came 0.555821 0.012305 -0.074944 -0.021672 -0.754973 -0.231929 -0.040908 -0.328712 -0.137576 0.711023 0.435047 0.459950 -0.297556 -0.699114 0.268563 -0.097983 0.186161 -0.195865 0.149112 -0.687873 0.317319 -0.524334 -0.820561 -0.782426 -0.106307 -0.006578 0.084606 -0.140248 -0.262875 -0.137031 0.194604 0.597913 0.720756 -0.121594 0.494869 -0.140687 0.379177 -0.232421 0.056609 0.070052 -0.024740 -0.313607 0.244133 0.226539 0.428097 -0.243697 -0.221203 0.426130 0.790940 -0.494307
useful 0.086654 0.068437 0.076791 -0.268998 -0.436502 0.219673 -0.333281 0.010367 -0.381890 0.524187 0.388164 -0.063146 -0.576977 -0.115700 -0.318482 -0.198371 0.482166 -0.312975 0.152383 -0.147335 0.176483 -0.135911 -0.090622 -0.283119 -0.029659 -0.422569 -0.083818 -0.152134 0.071774 -0.439688 0.166469 0.399101 0.599602 -0.186916 0.339034 0.091791 0.841231 0.055150 -0.115049 0.156087 0.030968 -0.236650 -0.365241 -0.067296 -0.000098 0.041352 0.380656 0.355764 0.411452 -0.017034
as 0.527522 0.560054 0.285169 -0.446639 -0.426072 -0.023212 -0.832897 -0.277707 -0.950517 0.173365 0.032832 0.386082 -1.521135 0.224139 -0.324002 -0.240510 -0.113581 0.111932 -0.217611 -0.579025 0.714315 -0.066351 -0.548470 -1.741019 0.065651 -0.768886 -0.197006 0.125263 0.071520 -0.410505 0.699963 0.811517 0.689038 -0.324859 0.629610 -0.599595 0.171062 -0.638637 -0.149115 0.464400 -0.137448 -0.579601 -0.427310 -0.774264 0.509925 0.325726 -0.195341 0.163478 -0.032078 -0.141976
she 0.139557 0.129837 0.093400 0.103383 -0.059036 -0.406715 -0.357874 -0.125029 -0.610456 0.677069 0.623344 -0.119544 -0.295114 -0.750544 -0.225549 -0.484792 -0.319057 0.221759 0.532471 -0.365309 0.236312 -0.069065 -0.697187 -0.759166 -0.418081 -0.400470 0.080096 0.301787 0.172101 -0.243781 0.430947 0.354267 1.083018 -0.601955 0.542618 0.163969 1.053067 -0.323246 0.270768 -0.039073 -0.055324 -0.533466 -1.025214 -0.501435 0.096442 -0.079608 -0.528373 0.445179 0.228027 0.088561
spent 0.747690 0.402464 0.216389 -0.161615 -0.479604 -0.005078 -0.365520 0.218353 -0.158216 0.362876 0.631248 0.003692 -0.632264 -0.129577 -0.164338 0.063685 0.418932 -0.159956 0.030987 -0.567912 0.201785 -0.305033 -0.307061 -0.408080 -0.073720 -0.246705 -0.310810 0.093082 0.018629 -0.496199 0.202861 0.198479 0.500120 -0.383483 0.631644 -0.227624 0.636984 0.177641 0.065696 -0.057747 -0.114197 -0.243694 -0.025565 -0.213860 -0.096354 -0.387757 0.070786 0.354911 0.339301 -0.330530
so 0.540170 0.727870 -0.079597 -0.379660 -0.380945 0.204741 -0.443140 -0.212286 -0.641549 0.709272 -0.389440 0.395012 -0.734628 -0.518351 -0.097018 0.147878 -0.105736 -0.343395 0.094723 -0.379793 -0.000631 -0.216528 -0.559446 -0.485060 -0.087238 -0.464417 -0.666617 -0.411431 -0.240439 -0.552084 0.316359 0.374568 1.026175 -0.659913 0.370092 -0.165534 0.807432 0.034169 0.383923 -0.017850 0.043246 -0.240461 -0.488728 -0.571389 -0.289639 -0.331365 -0.708131 0.547144 -0.189054 -0.271867
her 0.493369 0.580493 0.282558 -0.033683 -0.294977 0.043052 -0.196726 -0.122888 -0.216018 0.003123 0.955834 -0.369815 -1.038591 -0.455596 0.838576 -0.419554 0.022396 -0.568378 0.685804 -0.890186 0.170372 -0.669873 -0.286471 -0.696466 -0.315235 -0.265685 -0.298945 -0.353348 -0.130393 -0.516905 -0.005698 0.324543 0.635924 -0.344125 0.021217 -0.114617 0.847875 -0.295364 -0.029293 0.014664 -0.426523 -0.540077 -0.725792 0.252510 0.311486 0.475076 0.151614 0.198566 0.179350 -0.397085
time 0.764727 -0.186317 0.183452 -0.083537 -0.915222 -0.003542 -1.076217 -0.387873 -0.327719 0.898827 0.199488 0.353414 -0.593568 -0.258333 0.414465 -0.204600 0.344281 -0.375485 0.532706 -1.187353 0.273857 0.102390 -0.354764 -0.451898 0.398202 -0.098333 -0.807020 0.501579 0.383925 -0.856064 0.088791 -0.041883 1.097526 -0.122308 -0.199726 0.048507 0.932598 -0.405994 0.169781 -0.224682 0.560378 0.105683 0.118273 0.284800 -0.008143 -0.428881 -0.450845 0.556678 -0.045780 0.172364
craning 0.325321 0.113981 0.126259 0.211472 -0.354231 0.153890 0.170299 -0.134816 -0.133670 0.084177 0.225734 0.009587 -0.281621 0.060692 0.065590 -0.215973 0.177171 -0.127880 -0.241645 -0.495573 0.566158 -0.351943 -0.325566 -0.237833 0.075134 -0.281475 -0.005775 -0.104519 0.229604 -0.260926 -0.092873 0.194991 0.581262 0.077343 0.242680 -0.220062 0.176324 -0.295612 0.239816 -0.046282 0.403648 -0.355482 -0.244922 0.306925 -0.194206 -0.017683 0.031660 0.313927 0.125886 0.253202
over 0.543989 0.366702 0.302190 -0.350480 -0.486860 -0.355033 -0.151679 0.110761 -0.381298 0.405780 0.450566 -0.168249 -0.739259 -0.345462 0.011431 -0.345891 0.170666 -0.032556 0.263619 -0.699698 0.275219 -0.768421 -0.503962 -0.571303 0.181421 -0.438376 -0.668016 -0.029142 0.474957 -0.315013 0.602072 -0.095212 0.376927 -0.057337 0.409996 -0.028973 1.271587 -0.251105 -0.644745 0.906892 -0.456047 -0.423362 -0.336803 0.429101 -0.445754 0.076688 -0.242693 -0.269122 0.308528 -0.096907
garden 0.431528 0.353808 -0.405115 -0.065045 -0.574796 0.065782 -0.074109 -0.120812 -0.162526 0.642639 0.353524 -0.278992 -0.551958 0.127776 0.079439 -0.387495 -0.062077 -0.005970 0.127993 -0.060128 0.755981 -0.114438 -0.426555 -0.424409 0.293249 -0.312563 0.017252 -0.390847 0.239472 -0.591819 0.215605 0.366264 0.327660 -0.212466 0.275428 -0.294887 0.507129 -0.208070 -0.168508 0.073611 0.020282 0.063825 -0.269417 0.235908 0.256960 0.250742 -0.010323 0.159232 0.730403 -0.046982
fences 0.110761 0.085720 -0.244964 0.104411 -0.518620 -0.214478 -0.238738 -0.003377 0.035207 0.025696 0.135710 -0.286211 -0.016708 -0.157015 -0.096828 0.098159 0.474058 -0.305699 0.009731 -0.173467 -0.170305 -0.221734 0.049171 -0.345527 0.116589 -0.118865 -0.037423 -0.025828 0.025401 -0.189142 0.051437 0.296741 0.157596 0.182367 0.345923 -0.364224 0.195186 0.159503 0.210482 0.302223 0.119012 -0.098193 -0.227964 -0.050404 0.147331 -0.147712 -0.016384 0.246937 0.341367 -0.178845
spying 0.525539 0.377017 -0.107842 -0.170307 -0.307440 0.151010 -0.125722 0.163352 0.038304 0.569862 0.375015 0.046992 -0.374205 -0.148891 -0.026622 -0.316841 0.231214 0.074557 -0.012807 -0.448846 -0.091074 -0.204300 -0.282657 -0.211534 0.149394 -0.414741 0.003935 -0.222957 -0.028887 0.035144 0.086914 0.256327 0.437013 0.261316 -0.046973 -0.053409 0.280571 0.011507 -0.089885 -0.221582 0.261268 -0.159019 -0.030024 0.225467 -0.326513 -0.295054 -0.399429 0.450083 0.181710 -0.325615
on 0.933521 0.613284 -0.108060 0.215486 -0.360511 -0.061993 -0.258716 0.024011 -0.162069 0.496357 0.339343 0.353197 -0.425315 -0.196602 -0.362842 -0.653325 0.124755 0.099870 0.530412 -0.436229 -0.127889 -1.108220 -0.067934 -0.571607 0.085391 -0.500704 0.004021 -0.410466 0.869122 0.026710 0.035198 -0.037897 0.417452 -0.809661 0.459535 -0.078869 1.323307 -0.498019 -0.455793 -0.032242 -0.720144 -0.842981 0.032790 0.399279 0.064623 0.011195 -0.177589 -0.317303 0.464055 0.152280
neighbors 0.233411 -0.047909 0.225083 -0.095743 -0.524551 0.118542 0.075471 -0.016377 0.103658 0.453460 0.455506 -0.215379 -0.367588 -0.142506 -0.315924 -0.416169 0.456115 -0.152881 0.074649 -0.382310 0.412445 0.040602 -0.200150 -0.152156 -0.372502 -0.477639 0.311078 0.013278 0.044567 -0.329564 0.108255 -0.287101 0.563524 0.385324 0.079086 -0.236206 0.738275 -0.191216 -0.038777 -0.309193 -0.027730 0.184897 -0.132645 -0.019210 0.339555 -0.015468 -0.271489 0.117800 0.041965 -0.006204
dursleys 0.901681 0.069688 -0.550143 -0.412672 -1.068447 0.023958 -0.274636 -0.461487 0.002490 0.795237 0.663528 0.052918 -0.731462 -0.656111 -0.180311 -0.370717 0.150705 -0.125143 -0.236529 -0.636426 0.332219 -0.361484 -0.344472 -0.262271 0.031173 -0.204106 -0.200662 -0.225380 0.627668 -0.330959 0.389670 -0.002945 0.506213 -0.295854 0.285631 0.070477 0.507859 -0.316579 0.305402 -0.181446 0.144433 0.426173 -0.371766 -0.084649 0.177192 -0.701052 -0.328023 0.371824 0.781903 -0.266684
small 0.632814 0.233343 -0.491433 -0.199204 -0.633020 -0.057037 -0.123941 0.070034 -0.009727 0.592060 0.661221 0.101695 -0.399488 -0.262042 0.029353 -0.253102 0.167327 -0.161836 0.437849 -0.942900 0.484204 -0.488446 -0.499403 -0.151265 -0.127067 -0.456229 -0.134871 0.477589 -0.423670 -0.209857 0.219099 -0.075679 0.679898 0.223620 0.272052 -0.176549 0.567975 0.249488 -0.047055 -0.576758 -0.015457 -0.166194 -0.264458 0.016861 0.317056 -0.081060 0.070558 0.036374 0.834539 0.168191
son 0.347757 0.103016 -0.102410 0.175421 -0.776036 0.036139 -0.270635 -0.463817 -0.548226 0.168764 0.266048 0.249937 -0.038903 -0.250164 -0.267051 -0.322035 0.178098 -0.263570 -0.069760 -0.554886 0.313724 -0.155042 -0.199938 -0.471060 0.029122 -0.710803 -0.115093 -0.034695 -0.004756 -0.449598 0.283833 -0.002972 0.518546 -0.315920 0.510931 0.220825 0.648377 -0.025840 -0.085124 0.117023 0.169369 -0.110972 0.080965 0.184306 0.031379 -0.180561 -0.244797 0.884952 0.647308 0.018075
dudley 0.406898 0.381038 -0.184421 -0.543639 -0.521388 0.091682 -0.336832 0.016297 -0.383669 0.665713 0.455220 -0.198423 -0.329799 -0.569926 0.166722 -0.226593 0.012025 -0.127502 0.019455 -1.014317 0.272703 -0.589978 -0.807341 -0.345725 0.253491 -0.340059 -0.505264 -0.112466 0.125439 -0.354094 0.158586 -0.033802 0.536257 -0.214123 0.190790 -0.142340 0.668387 -0.301612 0.605158 0.045418 -0.066672 -0.260471 -0.601866 -0.060109 -0.002757 -0.312798 -0.158487 0.477459 0.044857 -0.060557
their 0.454342 0.044904 0.097880 0.047099 -0.218942 0.543417 0.150438 -0.750588 0.040002 0.043749 0.848363 -0.344199 -0.963725 -0.588177 0.601439 -0.508097 0.238211 0.137989 0.328407 -0.490476 0.335384 -0.631995 -0.628624 -0.406924 0.213989 -0.309514 -0.215132 -0.356911 -0.126753 -0.509745 0.523913 -0.130721 0.898538 -0.524441 -0.207295 -0.587791 0.876435 -0.146226 -0.706720 0.415645 -0.454780 -0.606851 0.037161 0.294917 0.216266 -0.148734 -0.172707 -0.179467 0.272900 -0.396548
opinion 0.725595 0.318539 0.068518 -0.338381 -0.306612 -0.159801 0.124553 -0.308336 -0.107585 0.443477 0.254282 -0.252395 -0.521076 -0.150138 -0.126059 -0.096104 0.138665 -0.410629 0.185168 -0.782739 0.337597 -0.116360 -0.374358 -0.270886 0.240999 -0.111969 -0.011906 0.069163 0.473722 -0.429727 -0.083552 0.130131 0.824447 0.175906 0.402139 -0.097563 0.446017 -0.061197 0.121707 -0.043686 0.134814 -0.104745 -0.163420 -0.143856 0.276455 -0.207233 -0.233434 0.242997 0.051640 -0.312487
there 0.827664 0.187446 -0.764907 -0.414566 -0.926865 0.346345 -0.298918 -0.243429 -0.293528 0.768141 0.539132 0.087076 0.180963 -0.643842 -0.044459 -0.130177 0.152903 -0.005690 0.061562 -0.669176 -0.397922 -0.490334 -0.513744 -0.343355 -0.098634 -0.645893 -0.071349 0.042752 0.312677 -1.033478 0.115990 0.047237 0.729716 0.076815 0.691107 -0.310619 0.533284 0.398971 -0.025644 -0.617828 -0.294774 -0.470016 -0.693135 -0.380795 -0.197925 -0.637825 -0.859006 0.425885 0.174073 -0.129990
no 0.400930 0.445497 -0.078093 0.389273 -0.071945 0.770280 -0.697979 -0.526019 -0.289714 1.364185 0.880822 -0.282324 0.152086 -1.112193 -0.405306 -0.244911 0.512248 0.079830 -0.064233 -0.923489 0.187837 -0.780016 0.476245 0.313378 0.396644 -0.775049 -0.201244 0.345749 -0.260295 -0.712880 0.105717 0.087476 0.856570 -0.218829 0.164219 -0.462014 0.531854 0.053630 0.403707 -0.328328 -0.004312 -0.081110 -0.746777 -0.306822 -0.543812 -0.204116 -0.426577 0.800015 -0.121233 -0.660993
finer 0.460925 -0.002348 -0.095542 -0.102005 -0.291199 0.454056 -0.073212 0.093904 -0.217933 0.434225 0.150034 -0.251168 -0.211951 0.136547 -0.007351 -0.330945 -0.077414 -0.226229 0.303821 -0.312778 0.477960 -0.066070 -0.047111 0.053470 0.144878 -0.271009 0.022352 -0.379443 -0.333786 -0.390592 -0.057961 0.129580 0.354348 0.077349 0.406289 0.261212 0.253547 0.029112 0.030876 -0.090721 0.055276 -0.170966 -0.086709 0.234490 0.190493 -0.260313 -0.051492 0.325901 0.656101 0.093626
anywhere 0.556947 -0.001021 -0.275592 0.051856 -0.339464 0.026652 0.196479 -0.026267 -0.020947 0.694512 0.033607 -0.064068 -0.290441 -0.437093 0.075073 -0.069362 0.158920 -0.131697 -0.133708 -0.499664 0.244131 -0.413716 0.085228 -0.378036 0.071688 -0.363815 -0.088186 0.212276 -0.000659 -0.652668 0.321934 0.133515 0.645493 0.085962 0.718142 0.060509 0.804144 -0.439515 0.215642 0.121818 0.244511 -0.208713 -0.204072 0.067712 -0.046349 -0.316993 -0.347155 0.091085 0.428044 -0.056975
everything 0.940098 0.108938 0.015814 -0.040658 -0.770240 0.745983 0.264308 -0.062137 -0.242801 0.707452 0.636018 0.310979 -0.620107 -0.567919 0.238474 -0.281619 -0.243493 -0.087577 0.106287 -0.746587 0.307385 -0.151354 -0.315262 -0.169488 0.177994 -0.241657 -0.316683 -0.055830 0.038695 -0.533702 0.047370 0.165740 1.067455 -0.695586 0.294196 0.036765 0.491727 -0.023814 0.068821 0.279740 -0.259941 -0.072910 -0.730747 -0.150605 -0.035776 -0.218361 -0.426275 0.371235 0.019400 -0.379336
wanted 0.656517 0.168663 -0.390762 -0.314705 -0.596761 0.123193 -0.279627 -0.278275 -0.199972 0.881635 0.367623 0.312962 -0.635969 -0.309176 -0.063545 -0.545945 0.053297 -0.571809 -0.089635 -0.601513 0.388127 -0.480390 0.157349 -0.533637 -0.098718 -0.380276 -0.106701 0.000319 -0.207777 -0.494958 -0.000160 0.764677 1.447097 -0.602409 0.380306 0.234505 0.540342 0.266909 0.152760 0.153810 -0.372639 -0.124908 -0.147332 0.176083 -0.383513 -0.351109 -0.456229 0.577413 -0.009226 -0.462471
but 0.412908 -0.079192 0.170628 -0.023610 -0.425928 0.343364 -0.521406 -0.238591 -0.527486 0.852963 0.407181 0.082782 -0.221956 -0.022371 -0.241004 -0.123286 -0.072154 -0.061706 0.492197 -0.425969 0.698846 -0.101839 0.001745 -0.136406 -0.188435 -0.295283 -0.631836 -0.150889 0.141277 -0.653149 0.362801 0.205205 0.950303 -0.489690 0.454341 -0.222956 0.969818 -0.040659 -0.032660 -0.307177 -0.235129 -0.236716 -0.639401 -0.294206 -0.082457 -0.163177 -0.711753 0.499345 0.029902 -0.103453
also 0.463045 0.328116 -0.238065 -0.037201 -0.755124 0.169770 -0.354789 -0.315841 -0.428351 0.574004 0.556303 0.279414 -0.228985 0.064259 0.023201 -0.289261 0.031530 -0.186087 0.030284 -0.498411 0.658130 0.041805 -0.544985 -0.780191 0.033850 -0.447935 0.006017 -0.123446 0.259416 -0.293620 0.248487 0.202317 0.633320 -0.324195 0.532330 -0.055115 0.666003 0.132859 0.262667 -0.104279 -0.365930 0.140530 -0.348040 -0.026827 -0.069241 -0.170539 0.071457 0.651593 0.001022 -0.392873
secret 0.747636 0.217136 -0.538812 -0.046541 -0.636246 0.152951 -0.277234 0.052447 -0.145993 0.898831 0.356810 -0.265372 -0.285764 -0.196638 -0.098250 -0.364532 0.448519 -0.109554 0.431891 -0.490342 0.378441 -0.027969 -0.453785 -0.546230 0.005221 -0.286537 0.044760 -0.152936 0.054685 -0.414151 -0.002895 0.221515 0.670506 0.024756 0.333572 -0.053726 0.347837 -0.206624 0.189021 -0.222469 -0.166981 -0.291960 -0.225160 0.211449 -0.184331 0.028758 -0.217477 0.578294 0.296638 -0.110781
greatest 0.394582 0.388512 -0.286821 0.237882 -0.497939 0.407218 -0.058199 -0.139591 -0.351854 0.592203 0.505344 -0.300971 -0.253959 -0.446294 0.076859 -0.294078 0.067303 -0.125451 0.018731 -0.283632 0.209442 -0.380678 -0.239529 -0.415827 -0.043138 -0.217771 0.092549 -0.001790 0.240344 -0.300236 0.208676 -0.223078 0.543435 -0.052311 0.624580 -0.058014 0.821071 -0.221138 -0.310615 -0.205877 0.270451 0.272024 -0.299448 0.339519 -0.297434 -0.123861 0.165238 0.043382 0.350224 -0.279254
fear 0.622593 0.530620 0.042972 0.083573 -0.601660 0.250954 0.103692 0.074066 0.217812 0.240835 0.504454 0.077626 -0.355939 -0.209376 -0.248997 -0.416860 0.284116 -0.273274 -0.010651 -0.288821 0.556299 -0.361299 -0.450604 0.123286 0.056052 -0.583032 0.045962 -0.331855 0.119066 -0.300117 0.344170 0.379888 0.554308 -0.025025 0.092130 -0.479841 0.771737 -0.174914 -0.051441 -0.184182 0.383502 -0.216271 -0.332597 0.028850 -0.342221 -0.301399 0.313977 0.276027 0.490481 0.033146
somebody 0.466771 0.471618 0.235633 -0.031333 -0.325580 0.175489 0.116883 0.123859 -0.256665 0.297715 0.249262 -0.270016 -0.133088 -0.408365 -0.374659 0.019295 0.142658 -0.060218 -0.043014 -0.290248 -0.029997 0.127094 -0.535086 0.188133 -0.080409 -0.156082 0.054971 -0.017784 0.361698 0.085003 0.523761 0.174726 0.736510 -0.385174 0.462955 -0.215177 0.465680 0.147162 0.119299 0.287453 -0.086412 -0.475908 0.266851 0.014362 0.044246 -0.305771 -0.376364 0.489115 0.438884 0.104963
would 1.039817 0.025084 0.155043 0.045386 -0.546299 -0.601873 -0.039257 -0.166279 -0.120228 0.483252 0.315934 0.294647 -0.582633 0.344814 -0.087979 -0.266666 0.524726 -0.303185 -0.122038 -0.708183 -0.160207 -0.594564 -0.094160 -0.599153 0.331740 -0.688490 -0.101310 -0.519579 -0.207314 -0.752696 -0.128598 0.438967 1.347487 -0.631977 0.155581 0.099618 0.554918 -0.114569 0.477827 -0.074045 -0.571767 0.126241 -0.764532 -0.129250 0.004415 -0.633771 -1.021092 0.256621 0.139496 -0.292375
discover 0.330527 -0.215269 -0.177918 0.125789 -0.381524 -0.107850 0.088895 0.096459 -0.301782 0.031960 0.299463 -0.041939 -0.125349 -0.074329 0.010595 0.221108 0.194733 -0.006244 0.270876 0.080819 0.333176 -0.098007 -0.024011 -0.077861 -0.030400 0.244073 0.250173 -0.110450 0.169633 -0.483430 -0.114732 0.035715 0.493648 0.024502 -0.097217 -0.384423 -0.023811 -0.128520 0.296528 0.069753 0.179287 -0.235513 0.074577 0.008215 0.091725 -0.404770 -0.172558 0.295072 0.185999 -0.251872
it 1.030606 -0.013556 -0.196767 0.169402 -0.132527 0.405149 -0.465546 -0.369366 -0.391371 0.486882 0.455643 0.009036 -0.472491 -0.352572 0.173369 -0.667473 0.342906 0.249987 0.094867 -0.582457 0.051291 -0.114788 -0.372928 -0.468695 -0.172011 -0.834140 -0.196974 0.164704 0.264078 -0.068192 0.032991 0.467314 1.008732 0.139207 0.442429 0.067125 0.941955 0.054312 0.467075 0.431238 -0.280024 -0.723467 -0.864675 -0.451058 -0.185995 -0.138845 -0.545289 0.354517 0.302650 -0.147680
think 0.971510 0.131861 -0.116771 -0.013003 -0.731297 0.403837 -0.147819 0.191252 -0.295762 0.385737 -0.274920 0.248549 -0.589578 -0.178960 -0.668095 -0.720220 0.095512 -0.322394 0.480129 -0.891689 0.468407 -0.518506 0.053584 0.098397 -0.290261 -0.715187 -0.310610 0.026922 0.586513 -0.706718 -0.329009 0.267607 1.421127 -0.312013 0.538788 -0.142257 0.999506 0.114926 0.556095 -0.063964 0.241153 -0.450443 -0.112470 -0.445244 -0.536441 -0.708250 -0.504445 1.324971 -0.269667 -0.339908
could 0.795614 0.248458 0.271204 -0.325500 -0.490009 0.230838 -0.130272 -0.106936 -0.339739 0.709453 -0.013559 0.647027 -0.353268 -0.063609 -0.352582 -0.868101 0.663339 -1.074825 -0.170817 -0.699583 0.200526 -0.454721 -0.396740 -0.567602 -0.120717 0.069866 0.185665 -0.167124 0.175712 -0.882786 0.166045 0.611258 1.382887 -0.802135 0.357582 -0.384525 0.504745 -0.134783 -0.103793 -0.058764 -0.662205 0.224346 -0.358248 -0.426195 0.279221 -0.157181 -0.687986 0.246580 0.031229 -0.370062
bear 0.194505 0.157050 -0.463611 -0.178077 -0.555152 -0.110575 0.011392 0.036043 0.121350 0.714919 0.383861 0.035927 -0.405977 -0.306399 -0.204207 -0.142951 0.490649 -0.002963 0.045768 -0.434636 0.676470 -0.293595 -0.239547 -0.101261 -0.009703 -0.142382 0.257139 -0.320124 0.019676 -0.434477 0.277999 0.278349 0.751456 0.062499 0.466469 -0.362299 0.096885 -0.193890 -0.065613 0.065169 -0.406947 -0.278102 -0.135274 0.233979 -0.160381 -0.130857 0.011212 0.552751 0.044826 -0.407976
if 0.907515 0.364251 -0.091260 0.003348 -0.523120 0.349034 -0.330562 -0.327072 -0.602542 0.080293 0.150713 -0.348312 -1.057672 -0.084882 -0.357262 -0.681715 -0.198811 -0.350373 -0.322352 -0.372350 0.575584 -0.527640 -0.039611 -0.199804 0.374309 -0.590234 -0.678456 0.057356 0.620194 -0.884103 0.125035 0.324542 1.158785 -0.435621 0.699542 -0.009125 0.412116 0.280270 0.186110 -0.250948 -0.169197 -0.412528 -1.038317 -0.459860 -0.353508 0.340676 -0.765167 0.713938 -0.413220 -0.422603
anyone 0.708705 0.050401 -0.350141 -0.261018 -0.304645 0.363533 -0.611528 -0.655242 -0.087330 0.301247 0.497514 0.474041 -0.637997 -0.101518 -0.028735 -0.416912 0.005688 -0.214220 0.014425 -0.542099 -0.239938 0.008113 -0.385733 -0.334506 -0.146915 -0.357276 0.238599 0.086228 -0.020529 -0.474303 0.371211 0.733127 1.418960 0.040670 0.708028 -0.078632 0.951509 0.024996 0.364369 0.084040 -0.094164 0.020429 -0.454194 -0.353124 -0.017474 -0.642915 -0.488346 0.676817 -0.114286 -0.424300
found 0.787504 0.255562 -0.283508 -0.190093 -0.676567 0.123305 -0.223361 -0.840669 0.170841 0.624011 0.296167 0.723899 -0.621623 -0.031792 0.149316 -0.589001 0.262721 -0.387268 0.156747 -0.627733 0.049886 0.187252 -0.709384 -0.572799 -0.069666 -0.043453 -0.471726 -0.266252 0.101586 -0.411131 0.064764 0.501922 0.937860 -0.423103 0.917590 -0.182183 0.386352 -0.097950 0.039495 0.054602 -0.149411 -0.248760 -0.454772 0.024815 0.221380 -0.344755 -0.293641 0.964890 0.207125 -0.391570
out 1.005339 0.532836 0.358532 0.052732 -0.398028 0.819958 -0.038268 -0.134188 -0.021757 0.621777 0.716642 0.918831 -0.557775 -0.315974 -0.186138 -0.579884 -0.757745 -0.444374 0.191706 -0.344190 0.496448 -0.714924 -0.261435 -0.275815 -0.402916 -0.504160 -0.617599 -0.294880 0.262945 -0.213845 0.402403 0.536721 1.278882 -0.289397 0.912915 0.141170 0.422800 0.044760 -0.027172 0.692039 -0.365568 -0.017424 -0.615319 0.581960 0.073941 -0.010501 0.356594 -0.228704 0.407946 0.052659
about 0.078130 0.352460 -0.071982 -0.218982 -0.554021 0.376089 -0.482883 -0.310744 -0.479169 0.469679 0.195690 0.474876 -0.240882 -0.058803 -0.149019 -0.413295 0.590171 -0.051552 0.426078 -0.388009 -0.021670 -0.018987 -0.423330 -0.606837 0.169094 -0.343083 -0.536652 -0.054523 0.290999 -0.893125 -0.138559 0.110601 1.027188 -0.572632 0.619801 -0.064757 0.967708 -0.054795 -0.059295 0.124050 0.219918 0.352169 -0.477736 0.348430 -0.558643 -0.597466 -0.566647 0.393400 -0.195542 -0.381884
potters 0.368525 0.164479 -0.356775 -0.317558 -0.735330 0.213777 -0.011957 -0.165028 0.042410 0.759808 0.440900 0.210094 -0.566270 0.107776 -0.138940 0.054386 0.320561 -0.407477 0.120076 -0.083668 0.581121 -0.146089 -0.252236 -0.301796 -0.295920 -0.735418 0.257120 -0.035939 0.155129 -0.416352 0.186468 -0.042740 0.728851 -0.144800 0.315169 -0.332663 0.902703 -0.045791 -0.017401 0.045174 0.295843 0.031561 -0.142376 0.012304 -0.171392 -0.284655 -0.811128 0.450583 0.093213 -0.071441
sister 0.741237 0.674342 0.193554 -0.263725 -0.766577 0.247800 -0.150810 -0.132954 -0.237594 0.615292 0.523032 0.177820 -0.037723 0.075318 0.181684 -0.182097 0.271881 -0.513792 -0.202227 -0.421389 0.209389 -0.254362 -0.606284 -0.098697 -0.092455 -0.128240 -0.609868 0.002003 -0.135486 -0.246924 0.174426 0.093043 0.717638 -0.184908 0.503881 -0.136311 0.651308 -0.083059 0.185191 -0.116218 -0.181338 -0.084900 0.024585 0.275693 0.040707 -0.118641 -0.221033 0.623923 0.314389 -0.005458
hadnt 0.894345 0.170704 -0.062500 -0.657659 -0.194308 0.213347 -0.160112 -0.506986 -0.249594 0.845020 0.027165 0.091368 -0.429613 -0.174924 -0.201211 -0.321846 -0.134156 -0.306628 0.100892 -0.878372 0.632716 -0.084089 -0.671862 -0.779122 0.190915 -0.580295 -0.677544 -0.209761 0.048969 -0.721314 0.558139 0.529767 0.794552 -0.347351 0.239560 0.236384 0.891601 -0.687134 0.309133 -0.175822 -0.490980 -0.435396 -0.057842 -0.151758 -0.179193 -0.520195 -0.467471 0.757054 0.020522 -0.401469
met 0.786085 0.120622 -0.054998 -0.540231 -0.420012 0.043838 -0.072169 -0.418819 -0.200237 0.467842 0.459860 0.153682 -0.330399 0.041057 -0.444164 -0.357845 0.601806 -0.180557 0.269527 -0.462356 0.668007 -0.328386 -0.345819 -0.193982 -0.590478 -0.421505 -0.354894 -0.018608 -0.108483 -0.429028 0.170838 0.192169 0.811256 -0.514833 0.517188 0.065129 0.648324 0.154185 -0.043089 0.008163 0.058883 -0.235921 -0.112355 -0.279012 -0.022439 -0.272985 -0.335168 0.338706 0.227529 -0.406498
for 0.133951 0.070659 -0.485332 0.337182 -0.524057 0.122981 -0.613314 -0.179691 -0.308002 0.707095 0.373602 -0.320419 -0.375111 0.086294 -0.065121 -0.466379 0.068841 -0.138950 0.501482 -0.812564 -0.048406 -0.571713 -0.028268 -0.617973 0.402082 -0.201387 -0.519877 0.185255 0.500870 -1.115802 0.691314 0.165530 0.762276 -0.332445 0.567043 -0.265154 0.443887 -0.423121 -0.215886 -0.369107 -0.052392 0.179196 -0.311127 0.995196 -0.065693 -0.461153 -0.453565 -0.158702 -0.062678 -0.179429
several 0.542321 0.102279 -0.153151 -0.049437 -0.590409 0.248499 0.099903 -0.091096 -0.213829 0.633911 0.493258 -0.126911 -0.379636 -0.031075 0.342509 -0.090272 0.250625 -0.528992 0.320709 -0.397104 0.540814 -0.441724 -0.230713 -0.401155 0.167365 -0.460912 -0.551634 0.057055 -0.150585 -0.226312 0.371130 -0.389233 0.502198 0.125989 0.304450 -0.146945 0.744894 -0.015964 -0.202969 0.144114 0.092311 0.054658 -0.369642 0.061048 0.244579 -0.206284 -0.230489 0.181780 0.652595 0.009577
years 0.358869 -0.032775 -0.289984 0.307163 -0.801915 -0.035982 -0.687184 -0.687319 -0.289391 1.111519 0.258122 -0.190863 -0.425293 -0.306122 -0.219054 0.370558 0.904025 -0.066532 0.128623 -0.754776 0.081068 -0.352532 -0.058972 -0.613228 0.375205 -0.081558 -0.381030 -0.162941 -0.175173 -0.521182 -0.175809 -0.238412 1.366913 -0.442330 -0.284018 -0.155461 0.510088 0.125541 0.042939 0.181988 0.559153 0.316407 -0.180954 0.550627 0.084600 -0.394574 -0.575249 0.385073 -0.223109 -0.224916
fact 0.346660 0.269883 -0.632867 -0.233242 -0.640293 0.225321 -0.268284 -0.584546 -0.649053 0.717994 0.657923 0.154501 -0.388542 -0.450759 0.038106 0.038929 0.141029 -0.039537 -0.304793 -0.715642 0.406676 -0.310071 -0.248128 -0.387747 -0.102199 -0.370482 -0.346168 -0.421438 -0.096242 -0.416961 0.512053 -0.114161 0.839481 -0.045560 0.364668 -0.234353 0.447778 -0.111167 0.145671 0.273405 0.317275 -0.009177 -0.030061 0.058317 -0.168883 -0.605241 0.007196 0.505996 0.424772 -0.083014
pretended 0.354925 0.395846 0.054860 -0.192903 -0.484424 -0.172793 0.033033 -0.387764 -0.114196 0.253510 0.298644 0.194827 -0.174425 -0.135511 -0.195112 -0.739208 0.184263 -0.379714 -0.279233 -0.379501 0.110907 -0.058427 -0.024313 -0.282195 0.015858 -0.131563 0.398028 0.064304 0.006270 -0.287106 -0.174312 0.053309 0.658580 0.164715 -0.022735 -0.248559 0.534161 0.020320 0.217027 -0.336892 -0.115552 -0.058984 -0.038894 -0.036773 -0.103289 0.017930 -0.054362 0.531658 0.720037 0.079439
goodfornothing 0.434870 0.450564 -0.026512 0.288469 -0.125025 0.176123 0.020474 0.206301 -0.258917 0.529451 0.300907 0.129446 -0.047216 -0.024075 -0.066791 -0.028517 0.126968 -0.246826 0.049249 0.063303 -0.156392 -0.539817 -0.043012 -0.011891 -0.158327 -0.027374 -0.278602 -0.074015 0.286664 -0.293567 -0.082858 -0.011455 0.362949 -0.042618 -0.000249 -0.076613 0.162032 -0.055003 0.065755 0.175761 0.172221 0.106900 0.093801 -0.207568 -0.028938 -0.272544 0.062640 0.255489 0.311238 0.079132
husband 0.139150 -0.018495 0.059456 0.332565 -0.366587 -0.545967 -0.104258 0.014597 -0.277603 -0.201696 0.180327 -0.136686 -0.683006 0.226861 -0.217625 -0.454417 0.054750 -0.228159 0.112815 -0.082986 0.134799 -0.030604 -0.141964 -0.299504 -0.276576 -0.015995 0.020976 0.107540 0.315075 -0.357146 0.063060 0.075087 0.366008 -0.041861 0.280043 -0.290425 0.097635 -0.079077 -0.130564 -0.125104 0.381084 0.191575 -0.414498 -0.043260 -0.232373 -0.517678 -0.289557 -0.060854 0.331943 -0.119450
undursleyish 0.460637 -0.159372 0.073077 -0.361417 -0.279405 -0.322250 -0.019838 -0.090967 -0.460613 0.434167 -0.181816 0.113038 -0.446491 -0.609614 0.111160 0.126465 0.196530 -0.444862 0.160271 -0.017790 -0.087367 0.058674 0.048787 0.238893 -0.008014 -0.275901 -0.168368 0.298732 -0.397164 -0.079321 0.077004 -0.080816 0.211134 -0.316808 -0.054144 -0.029832 0.362448 -0.119641 -0.222794 0.101169 0.333104 -0.145482 -0.263090 0.229202 0.008501 -0.377294 -0.302967 0.237416 -0.077951 0.132913
possible 0.250976 0.535822 0.091338 -0.103252 -0.411657 0.484390 -0.212584 -0.529998 -0.457064 0.734946 0.366303 0.274014 -0.977956 0.063155 -0.203645 -0.564978 0.479938 -0.095085 0.043283 -0.569737 0.134680 -0.081785 -0.502784 -0.507623 0.036406 -0.348732 -0.200487 0.006458 0.176468 0.072762 0.405732 0.311882 0.583143 -0.005449 0.597284 0.045281 0.794169 0.003581 -0.160676 0.320017 0.479353 -0.220643 -0.093204 -0.454027 0.073521 0.190751 -0.515446 0.253273 0.133173 0.302115
shuddered 0.274395 0.062980 0.114396 -0.204234 -0.191379 0.065357 -0.117040 -0.010881 -0.224491 0.278669 0.075795 -0.052756 -0.634240 -0.092553 -0.281251 -0.315381 0.332162 -0.425248 -0.456565 -0.235812 -0.039143 -0.216268 -0.592201 -0.274110 0.100494 0.186554 -0.054890 -0.117147 -0.114498 -0.214068 0.201376 -0.102653 0.696952 -0.225082 -0.119942 -0.306940 0.433711 -0.089485 0.110867 0.015288 -0.128361 -0.042201 -0.373560 0.417456 0.093938 -0.018685 -0.160782 0.324577 0.473819 0.273740
what 0.553286 0.512312 -0.378140 -0.430954 -0.588281 0.380748 -0.199747 -0.246197 0.101031 0.154239 0.195371 0.681539 -0.884292 -0.546352 -0.529123 -0.411922 0.163322 -0.442083 0.765653 -0.353525 0.187148 -0.305710 -0.496139 -0.248734 -0.298923 -0.323861 -0.484145 -0.524623 0.430797 -0.802478 -0.328857 0.155114 1.135396 -0.446856 0.480166 0.198655 0.923511 0.486748 0.104337 -0.349834 0.362509 -0.116908 -0.781711 -0.558587 -0.212565 -0.626156 -0.614015 1.107436 -0.236963 -0.419964
arrived 0.689030 -0.156065 -0.018415 0.037184 -0.441288 -0.306285 0.009813 -0.440511 -0.512285 0.621321 0.539518 0.056644 -0.713171 -0.612315 0.010935 -0.171344 0.249748 -0.412680 0.398945 -0.572529 0.844091 -0.277998 -0.624289 -0.005531 -0.224475 -0.434893 -0.198106 0.054700 -0.122051 -0.368740 0.199976 0.061697 0.631518 0.002511 0.511387 0.021707 0.804797 -0.085576 0.110029 -0.095636 0.161141 0.140619 -0.090317 -0.014594 -0.076424 -0.326350 -0.021911 0.320052 0.267441 -0.049058
street 0.426150 0.046212 -0.556969 -0.122931 -1.112917 0.209983 -0.135139 -0.183694 -0.120570 0.921046 0.702460 0.589695 -0.885792 -0.678542 -0.224107 -0.249604 -0.154194 -0.109600 -0.039584 -0.427897 0.413463 -0.489390 -0.136147 -0.662819 0.185514 -0.462893 -0.085373 -0.125560 0.157587 -0.405768 0.242564 0.440543 0.515240 -0.170963 0.468354 0.170503 0.514353 -0.032775 -0.093655 0.007689 0.497310 0.287559 -0.164839 0.070873 -0.017766 0.034644 -0.311163 0.260897 0.800847 0.107598
knew 0.402150 0.277196 -0.592833 -0.580999 -0.505064 0.370653 -0.382201 -0.111127 -0.383142 0.775909 -0.032316 0.175103 -0.270459 -0.047037 -0.417642 -0.556860 -0.019600 -1.067164 0.093924 -0.970848 0.802191 -0.101134 0.011986 -0.536737 0.054602 -0.684824 -0.468766 -0.042772 0.329644 -0.579250 -0.033309 0.131337 0.821624 -0.296076 0.756327 -0.144198 0.890844 -0.055190 0.159507 -0.214106 0.082547 -0.180063 -0.172329 -0.485746 -0.243735 -0.158853 -0.884533 1.059280 0.032111 -0.409150
too 0.371151 0.927750 -0.334976 -0.386589 -0.965002 0.286165 -0.646477 -0.297131 -0.469184 0.615191 0.281689 0.037928 -0.187518 -0.324872 -0.151528 0.216866 0.191558 -0.131395 0.028720 -0.556789 0.125320 -0.425677 0.006174 -0.294930 -0.126526 -0.743519 -0.122894 0.501043 0.103301 -0.793981 -0.483151 0.268031 0.452995 -0.368434 0.806404 0.067247 1.002616 0.402056 0.341157 0.262652 0.060751 -0.519911 -0.405186 -0.185972 -0.162581 -0.116131 -0.155029 0.655180 -0.113480 -0.147597
never 0.986323 -0.184003 -0.271573 -0.160081 -0.410799 0.186111 -0.591224 -0.396688 -0.333056 0.615796 -0.550831 0.009084 -0.709605 -0.605294 0.122427 -0.480257 0.043224 -0.249833 0.160106 -0.851001 0.216909 0.166510 -0.548066 -0.068659 0.530855 -0.253740 -0.633754 -0.296120 0.380380 -0.980574 0.145155 0.316368 1.440936 -0.461051 0.372039 0.244814 1.179342 -0.007896 0.960612 -0.348051 -0.506261 -0.090022 -0.736614 -0.012666 -0.352925 -0.172183 -0.162808 1.150267 -0.215251 -0.440611
even 0.623282 0.130740 -0.289811 -0.270076 -0.292663 0.032679 -0.393227 -0.714652 -0.269814 0.718435 0.427978 0.256434 -0.274804 0.023037 0.078880 -0.528109 -0.006080 -0.883970 0.307859 -0.668794 -0.083045 -0.403987 -0.336236 -0.313665 0.284133 -0.633999 -0.375759 -0.020455 0.002336 -0.496702 0.193550 0.350220 1.164921 -0.179431 0.169622 -0.024546 0.503430 -0.168094 0.122309 -0.106905 0.138132 0.233278 -0.288296 -0.493455 0.079655 -0.350307 -0.343655 0.602010 0.094599 -0.727385
seen 0.703601 0.040931 -0.465267 -0.151946 -0.574027 -0.282630 -0.353389 -0.504673 -0.429173 1.043889 0.188159 0.367455 -0.857295 0.029606 -0.010791 -0.424464 0.004900 -0.811748 0.289070 -0.726686 0.281487 -0.117801 -0.403152 0.007357 0.097264 -0.174141 -0.214074 0.119966 0.237419 -0.974198 0.291068 0.345978 1.256360 -0.786641 0.435453 0.293343 0.364524 0.097946 0.649516 -0.212559 -0.200269 -0.160913 -0.876512 -0.110468 -0.373308 -0.330309 0.324080 0.795704 0.185651 -0.282185
him 0.518348 0.248248 0.252923 -0.512301 -0.361863 1.031119 -0.055999 -0.307830 -0.227866 0.671384 0.439378 -0.304865 -0.577229 -0.263041 0.491429 -0.421098 0.007164 -0.260481 -0.233645 -0.636986 0.293626 -0.049504 -0.474478 -0.136485 -0.046531 0.313858 -0.883072 -0.317405 -0.523587 -0.780885 -0.061282 0.699635 1.076888 -0.175221 0.409289 0.696308 1.046233 0.100136 0.265252 0.092392 -0.171525 -0.229101 -1.035645 0.044020 -0.027385 -0.273877 -0.140309 0.092109 0.473508 0.026583
this 0.874123 0.295874 -0.362576 -0.053461 -0.412136 -0.065807 -0.649729 -0.268337 -0.036108 0.536586 0.032267 -0.198237 -0.708096 -0.216494 0.091475 -0.320108 0.375194 -0.251331 0.856003 -0.510589 -0.023862 -0.480037 -0.050325 -0.376651 -0.574977 -0.240502 -0.395541 0.407537 0.424518 -0.361641 0.422795 -0.005979 1.038769 -0.067860 0.412065 -0.451022 0.806106 0.191648 0.038823 0.736806 0.121739 -0.167531 -0.905681 -0.170348 -0.383786 -0.307718 -0.762966 0.699245 0.109171 -0.461388
another 0.479370 -0.169021 -0.186030 0.140849 -0.440409 0.396868 -0.220717 -0.507881 -0.394161 0.694972 0.577546 -0.184597 -0.330373 -0.488780 0.320759 -0.336408 0.360511 -0.341645 0.017258 -0.887771 0.102970 -0.503919 -0.246706 -0.224877 -0.168247 -0.226459 -0.454999 -0.029759 0.133289 -0.207247 0.390023 0.264925 1.001602 -0.254485 0.406400 -0.255830 0.559586 -0.079052 0.239603 -0.208169 -0.065161 -0.167181 -0.640117 0.052864 -0.119030 -0.096946 -0.285847 0.168693 0.256341 -0.219839
good 1.013724 0.588744 -0.386689 -0.122371 -0.346435 0.475040 -0.582656 -0.591179 -0.111112 0.866062 0.785029 -0.035609 -0.117020 -0.281371 -0.242560 0.196969 0.057781 -0.147514 0.087496 -0.820438 0.032675 -0.565402 -0.009377 -0.713415 -0.423981 -0.538560 -0.053405 0.720301 -0.351988 -0.751460 0.123259 0.134852 1.123958 -0.462641 0.143937 0.039556 0.593940 0.203150 0.110777 -0.221779 -0.183420 0.208285 -0.514316 -0.419124 -0.035114 -0.124638 -0.555554 0.416001 0.114621 -0.098396
reason 0.383353 0.262532 -0.268721 -0.483792 -0.981970 0.219388 -0.603514 -0.199683 -0.112699 0.587750 0.613141 0.256707 -0.056298 -0.494218 -0.295874 -0.221975 0.247401 -0.405639 0.189774 -0.750204 0.418335 -0.538844 -0.120230 -0.501139 0.174908 -0.604381 -0.374326 0.244095 0.268376 -0.317261 -0.080478 0.446513 0.829818 0.052641 0.304536 0.018879 0.622886 -0.136196 0.398133 -0.667165 0.226720 -0.218163 -0.144810 -0.088791 -0.611607 -0.418262 -0.269631 0.318588 0.526518 -0.064606
keeping 0.931270 0.286138 -0.047660 0.053883 -0.643823 0.096092 -0.278466 0.204253 -0.457307 0.667785 0.318154 -0.089612 -0.227604 -0.364369 0.303239 -0.157833 0.209475 -0.296524 0.175165 -0.131820 0.123700 0.087005 -0.324947 -0.602941 -0.066755 -0.351860 -0.233695 0.202822 0.183975 0.072800 -0.040154 0.194992 0.683970 0.105855 0.481838 -0.171140 0.741466 0.169469 -0.218248 -0.218585 0.288702 0.231067 -0.407059 0.231129 -0.110265 -0.167500 -0.044551 0.391180 0.498872 -0.016893
away 0.590375 0.116394 0.009786 -0.255044 -0.741629 -0.103822 0.278911 -0.552196 -0.141307 0.749655 0.382877 0.396164 -0.325614 -0.209766 -0.673371 -0.534368 0.091417 -0.467410 -0.143006 -0.673328 0.484926 -0.587796 -0.169307 -0.305264 -0.041461 -0.703648 -0.191399 0.202513 0.080924 -0.164039 0.092595 0.030198 0.733793 0.005018 0.028679 -0.177168 0.690268 -0.007806 0.196754 -0.170170 -0.169558 -0.568901 -0.453551 0.309621 0.496818 0.136786 -0.260959 0.005200 0.523283 -0.121467
want 0.875764 0.172379 -0.071035 -0.080684 -0.986728 0.008305 0.316614 0.308931 0.126912 0.816287 0.042374 -0.211567 -0.516567 -0.214669 -0.026369 -1.133333 0.023579 -0.295783 -0.105123 -0.622084 0.871849 -0.443623 0.038613 0.169689 -0.570840 -0.422909 -0.306835 0.496203 0.196263 -0.565769 -0.241272 0.696557 1.674582 -0.655908 0.775834 0.111040 0.821443 0.113087 0.374964 -0.107844 0.055486 -0.101279 -0.117217 0.021470 -0.320730 -0.934623 -0.730477 0.851868 -0.178337 -0.385631
mixing 0.058104 0.306504 -0.181007 -0.212460 0.057456 0.211992 0.167508 -0.052316 0.131644 0.252329 0.407830 0.146482 -0.384237 -0.058206 -0.388519 -0.180465 0.276720 0.219456 0.185999 -0.073112 0.268823 -0.378263 -0.093864 -0.242909 0.197561 -0.371639 -0.163337 -0.241003 0.034685 -0.324733 0.101198 0.051450 0.315882 0.022151 0.307183 -0.368759 0.272030 0.275562 -0.163416 -0.014011 0.702223 -0.150170 -0.155989 0.012515 0.267047 -0.399146 -0.145451 0.540892 0.265514 0.343016
child 0.198768 0.533574 -0.112328 0.123205 -0.344025 -0.053917 0.143518 0.102588 -0.338868 0.154064 0.314444 0.302705 -0.748230 -0.150107 0.133526 0.099366 0.326093 -0.091983 0.528461 -0.265968 0.213662 0.186198 -0.418978 -0.435518 -0.121055 -0.332842 0.164909 -0.037200 -0.061827 -0.240888 0.303526 0.057243 0.478545 -0.096515 0.074186 0.087977 0.332070 -0.060676 -0.168981 0.060981 0.154325 0.230520 -0.209436 0.140171 0.171927 0.126091 -0.240438 0.135152 0.078719 0.039396
like 0.730408 0.817948 -0.090463 -0.358484 -0.717939 0.117644 0.051952 -0.110504 -0.566083 0.009070 0.025026 0.587485 -1.055599 -0.040544 -0.534390 0.286757 0.150083 0.028497 0.756593 -0.590589 -0.151977 -0.530920 -0.372509 -0.487892 -0.131521 -0.835748 -0.476307 0.366435 -0.136356 -0.450572 0.549468 0.476669 0.607238 -0.823365 0.116134 0.244931 0.462844 0.327177 -0.245790 -0.304456 -0.237563 0.034363 0.018739 -0.065764 -0.454392 -0.011795 -0.139814 0.806953 0.317150 -0.467566
when 0.682862 0.404986 0.142387 -0.103821 -0.354037 0.169712 -0.287615 0.199103 -0.468955 0.632826 0.347704 0.486980 -0.387063 -0.489249 -0.210434 -0.502550 -0.299492 -0.252237 0.189885 -0.619608 0.671303 -0.513623 -0.460508 -0.054780 -0.304732 -0.315139 -0.400508 -0.293644 0.468455 -0.551149 0.209993 -0.000566 0.670514 -0.379028 0.343669 -0.268196 0.848484 -0.172640 -0.235273 -0.127843 -0.153903 0.299402 -0.303742 -0.445391 0.339996 -0.034747 -0.212610 0.687237 -0.089925 -0.513017
woke 0.392483 0.439988 -0.122550 -0.338384 -0.823707 -0.012475 0.002353 0.064904 -0.473585 0.657358 0.265697 0.035316 -0.220859 -0.400646 0.110387 -0.483204 -0.068733 -0.237064 -0.048230 -0.492854 0.098227 -0.357683 -0.234536 -0.735417 -0.318695 -0.332490 0.190971 -0.096962 0.041861 -0.563882 -0.212514 0.322559 0.348651 0.031587 0.326360 -0.386793 0.728273 -0.303791 0.033709 -0.010221 0.255512 0.032977 -0.122281 0.036924 0.015774 -0.233889 -0.234232 0.549555 0.532228 -0.025514
up 0.339213 0.862152 -0.138109 -0.181923 -1.030644 -0.137715 -0.224652 -0.499468 -0.327946 0.741881 0.530288 0.448321 -0.581559 -0.032000 -0.075152 -0.454656 -0.915239 0.283841 -0.060336 -0.390543 0.257481 -0.618118 -0.327512 -0.419666 0.063349 -0.497216 -0.210118 -0.152119 0.019141 -0.710739 -0.210959 0.555546 0.787721 0.175801 0.176887 -0.044976 0.606030 0.520754 0.062144 0.919101 0.336818 -0.538239 -0.448155 0.662680 0.325942 -0.183297 -0.196223 -0.553430 0.567994 -0.553732
dull 0.260160 0.409196 -0.098378 0.207994 -0.227156 -0.127680 0.152064 -0.189284 0.325177 0.315553 0.445291 0.049660 -0.231894 -0.017219 -0.400993 -0.314501 0.426798 -0.069687 0.191713 -0.319177 0.320106 -0.180302 -0.155093 -0.279961 -0.193148 -0.504580 0.074778 -0.178447 0.212126 0.116483 0.251936 0.309168 0.683701 0.127068 0.147555 -0.294499 0.371983 0.028440 0.222199 -0.280274 -0.016980 -0.071912 0.147988 0.032468 -0.136548 -0.112411 -0.143777 0.082781 -0.015487 0.143396
gray 0.573459 0.615874 0.015612 0.169698 -0.678742 0.045003 0.108319 0.139449 -0.130899 0.392001 0.297163 -0.094208 -0.194556 0.198825 -0.021479 -0.357033 0.311044 -0.219894 0.219129 -0.343991 0.316655 -0.585777 -0.372333 -0.621596 -0.115328 -0.598841 0.014984 -0.483362 0.157023 -0.455897 -0.023257 -0.012917 0.840214 0.037828 0.065873 -0.055492 0.526639 -0.079351 0.022082 -0.037624 0.047776 0.101923 -0.575574 0.334610 0.064880 -0.126579 -0.129892 0.384622 0.187712 0.115279
tuesday 0.219662 0.351477 -0.398441 0.060173 -0.262845 0.073461 0.127114 -0.002597 -0.426412 0.467377 0.184105 -0.067298 -0.190398 -0.055062 0.010660 0.153851 0.148512 -0.151537 0.226287 -0.361973 -0.004773 -0.682438 -0.389193 -0.555669 -0.110300 -0.329860 -0.021800 0.017404 0.086640 -0.228467 0.292443 0.123588 0.238470 -0.234545 0.320547 -0.093565 0.552328 0.087825 0.123133 -0.319597 -0.190856 0.240309 -0.142150 0.091624 -0.001909 -0.109612 -0.300857 0.294182 0.486288 -0.037990
our 0.191376 0.240001 -0.076261 -0.207889 -0.689774 0.239809 -0.120113 0.186463 -0.029119 0.332112 0.380540 -0.340836 -0.543745 -0.448151 0.246484 -0.385615 0.540567 -0.342485 0.196610 -0.648229 0.357655 -0.200579 -0.072155 0.104641 -0.311875 -0.208482 -0.125010 -0.095413 0.313057 -0.414205 -0.020842 0.156958 1.094854 -0.302276 0.304277 -0.391405 0.598288 -0.120198 0.042264 0.151551 0.047205 -0.079158 -0.150000 0.183770 0.097282 -0.596778 -0.337617 0.114416 0.345994 -0.024439
story 0.611144 0.175697 -0.244268 -0.526881 -0.232893 -0.043277 0.148722 0.246880 -0.456956 0.689178 0.127765 0.171905 -0.551099 -0.194471 -0.022534 -0.050772 -0.096658 -0.045001 -0.226401 -0.354416 0.517338 -0.283974 -0.493737 -0.228037 -0.067284 -0.412200 -0.174993 -0.165791 0.266722 -0.519661 0.356592 0.255014 0.709771 -0.256898 0.107059 -0.412567 0.692360 -0.477819 0.269623 0.077341 0.108470 0.068542 -0.349324 0.190269 -0.021305 -0.272094 -0.417360 0.318592 0.567046 0.390180
starts 0.274365 0.189475 0.151719 -0.452340 -0.346643 0.149472 -0.018705 -0.067875 -0.287574 0.541049 0.132663 -0.167178 -0.240574 -0.263867 0.143166 0.090728 -0.318330 -0.269225 0.222538 -0.316283 0.362946 -0.376093 -0.023051 -0.447925 -0.243707 -0.226091 0.016178 -0.199235 0.109071 -0.200640 0.214632 -0.233722 0.484108 -0.036367 0.401889 -0.639249 0.350566 -0.044093 -0.330876 -0.160501 0.024741 0.115434 -0.460559 0.247221 -0.222042 0.132703 -0.144253 0.486929 0.327927 0.002853
nothing 0.518435 0.178650 -0.449855 -0.035188 -0.621207 0.583669 -0.635580 -0.083674 -0.121089 0.519516 0.556320 0.107683 -0.293533 -0.724191 -0.255358 -0.249104 0.165240 -0.366613 -0.015979 -0.879469 0.158922 -0.449540 -0.120709 -0.503799 0.036273 -0.236147 -0.331853 0.310104 0.128439 -0.440473 0.391647 0.224921 1.277932 -0.650972 0.439638 0.068173 0.405975 -0.106627 0.041359 -0.073694 0.272331 0.059493 -0.604805 -0.405333 0.063355 -0.193160 -0.929576 0.491253 0.423403 -0.581429
cloudy 0.428996 0.462033 -0.122175 -0.120704 -0.280095 -0.003972 -0.072269 -0.069145 -0.380581 0.299424 0.433120 0.110689 -0.081469 0.065440 0.174589 -0.136379 0.096135 -0.195979 0.194256 -0.106227 -0.026391 -0.250804 -0.116558 -0.165374 0.131064 -0.185206 -0.363370 -0.356080 0.068106 -0.321273 0.369592 0.184484 0.492113 -0.165163 0.391117 -0.016618 0.538039 -0.394238 -0.088702 0.327870 0.514743 0.000066 -0.156308 0.054974 -0.196918 -0.085177 -0.223124 0.092711 0.215243 0.016257
sky 0.654618 0.486624 -0.274398 -0.337206 -0.782351 0.271923 -0.091262 -0.407817 -0.516547 0.935500 0.626379 -0.060110 -0.588215 -0.353792 -0.179170 -0.213399 0.272476 -0.125941 0.088803 -0.445724 0.273899 -0.336805 -0.196725 -0.505042 0.187371 -0.191055 -0.033387 -0.288276 0.090342 -0.100321 0.254972 -0.041784 0.392020 -0.117746 0.727537 -0.000213 0.699752 -0.025778 -0.074520 0.079267 0.329812 0.282879 -0.185035 -0.131520 -0.062817 -0.125234 -0.354044 0.091768 0.341847 -0.172455
outside 0.684229 0.404990 -0.648926 -0.271962 -0.644973 -0.045238 0.255912 0.108008 -0.419427 0.860639 0.413988 -0.004291 -0.656956 -0.324912 0.219071 0.065104 0.386594 -0.007024 -0.016968 -0.039528 0.276105 -0.266492 -0.455862 -0.431192 0.117308 -0.476829 -0.113053 -0.156150 0.366731 -0.389801 0.190082 0.086327 0.520843 -0.066768 0.434837 -0.119583 0.581932 -0.082746 0.032665 -0.044917 0.213581 0.240574 -0.289503 0.104827 -0.077661 -0.433419 -0.421706 -0.136921 0.509525 -0.167699
suggest 0.622469 0.442686 -0.037185 -0.032427 -0.114484 0.171785 0.091681 -0.043569 -0.135672 0.081392 0.288343 -0.059497 -0.371900 -0.146914 -0.260006 -0.119765 -0.081434 -0.236632 0.243224 -0.570229 0.144158 -0.270763 -0.238274 -0.113402 0.061566 -0.573082 0.079697 -0.166481 -0.131629 -0.453303 -0.091282 0.230666 0.993508 -0.245195 0.251702 0.142272 0.445969 0.153898 -0.275284 -0.459787 0.098664 -0.236746 -0.135573 0.101570 -0.288090 0.076800 -0.261466 0.265472 0.039273 -0.255623
things 0.278681 0.273929 -0.205166 -0.205106 -0.554142 0.357425 -0.148449 0.027772 -0.058001 0.579839 0.391359 0.288077 -0.753292 -0.907019 -0.592235 -0.575880 0.274313 -0.132555 -0.021114 -0.483600 0.060071 -0.265687 -0.180932 -0.228984 -0.100420 -0.250220 -0.439705 -0.045136 0.144456 -0.337830 -0.104531 0.081026 0.988226 -0.354623 0.450435 -0.090964 0.434305 0.188690 0.036923 -0.341104 0.672165 -0.074904 -0.530328 -0.002764 -0.246908 -0.289846 -0.303423 0.700340 0.248438 -0.518933
soon 0.585961 0.308881 -0.287894 -0.072179 -0.521507 0.059364 -0.147989 -0.421308 -0.083010 0.640188 0.523170 -0.056281 -0.585293 -0.184162 0.259788 -0.660466 0.135958 -0.343162 -0.109545 -0.431861 0.300489 -0.063706 -0.079770 -0.332219 0.335775 -0.319559 -0.052500 0.108841 -0.048171 -0.806560 0.421484 0.475508 0.714432 -0.452501 0.466584 -0.348836 0.401870 0.051957 0.177313 -0.407016 -0.226172 0.064375 -0.358159 -0.464722 0.307178 -0.028519 -0.443627 0.228671 -0.066447 -0.064795
happening 0.200662 -0.065590 -0.258575 -0.025894 -0.685504 0.279332 -0.308874 0.233114 -0.031467 0.335632 0.521875 -0.183956 -0.530620 -0.087373 0.114685 -0.097792 0.109938 -0.058017 -0.154881 -0.390924 0.526859 -0.583546 -0.365236 -0.212561 -0.000569 0.124180 -0.153186 -0.111481 -0.076567 -0.506956 0.115320 -0.068432 0.307256 -0.194060 0.299787 -0.229659 0.706532 0.082473 0.322314 -0.188278 0.273990 -0.269817 -0.254525 -0.000996 -0.449652 -0.405886 -0.133633 0.232691 0.520566 -0.244619
all 1.215338 -0.008299 -0.086874 -0.589164 0.272164 0.206755 -0.337489 -0.798599 0.009949 0.434909 0.490535 -0.459685 -0.680082 -0.603451 -0.491006 0.104948 0.190054 0.092240 -0.104750 -0.709331 -0.031286 -0.362012 -0.169512 -0.307377 -0.383898 -0.167181 -0.744881 -0.651741 0.688856 -0.898154 0.444935 -0.274269 1.224977 -0.091020 0.515781 -0.132218 0.863701 -0.065599 0.060027 0.158473 0.526904 -0.547871 -0.153282 0.408680 -0.193232 -0.347251 -0.525010 0.049468 0.221196 -0.922603
country 0.633472 0.404282 -0.114135 0.034349 -0.701417 0.592854 -0.057512 -0.017230 0.067381 0.593263 0.318543 -0.157452 -0.615744 -0.533042 -0.056322 -0.059248 0.251580 0.035696 -0.124067 0.029845 0.205621 -0.285558 -0.400609 -0.292951 0.016861 -0.307861 0.050128 -0.187845 0.031648 -0.273755 0.137989 -0.135414 0.399142 -0.072504 0.287652 -0.325551 0.783016 -0.149204 -0.045725 -0.148278 0.031604 0.300645 0.048471 0.067742 0.053147 0.239196 -0.269750 0.069985 0.233285 -0.018033
hummed 0.341897 0.228467 0.000343 -0.095237 -0.561263 0.089624 -0.014435 0.284038 -0.178916 0.510588 0.478225 0.134504 -0.045315 -0.055517 -0.110089 0.016406 0.206141 -0.439469 -0.039371 -0.075765 0.134240 -0.475034 -0.256667 -0.403882 0.233747 -0.215004 0.225586 -0.284540 -0.414719 -0.173115 0.289863 0.477938 0.512582 -0.159302 0.417245 -0.400270 0.579811 0.166313 -0.151920 0.241869 0.107293 -0.312120 0.445445 0.014194 0.232595 0.041292 -0.257645 0.069004 -0.071633 -0.017179
picked 0.377809 0.297185 -0.041438 0.125029 -0.511116 -0.181685 0.226690 -0.118670 -0.522242 0.803580 0.565704 0.489193 -0.353201 -0.209850 0.044571 -0.392571 0.231902 0.016609 -0.567686 -0.764803 0.460291 -0.340919 -0.422300 -0.673206 0.095395 -0.178577 0.010556 -0.179274 0.297904 -0.071758 0.267233 0.305897 0.498304 0.057063 0.329098 -0.431818 0.823269 -0.155686 0.127596 0.059084 0.437774 -0.221037 -0.197149 0.210980 0.228674 -0.435826 -0.344994 0.145998 0.716598 0.075164
his 0.829247 0.068824 0.095227 -0.241328 -0.047345 -0.357417 -0.193527 -0.136598 0.240196 -0.269489 0.713174 0.002383 -0.944007 -0.879800 1.058928 -0.635186 0.254507 -0.052440 0.692237 -1.387580 0.074880 -1.123969 -0.003126 -0.301228 0.280229 -0.495469 -0.472684 -0.232258 -0.506504 -0.488808 -0.144653 -0.076397 0.739372 -0.468922 0.303940 -0.617328 1.267629 -0.201124 -0.948743 0.369300 -0.574616 -0.803006 -0.640599 -0.027880 0.482358 0.521244 0.268267 0.315599 0.398554 0.336960
most 0.907403 0.330783 -0.015781 -0.143158 -0.514399 0.104796 -0.296632 0.125856 -0.097269 0.623478 0.254557 0.364401 -0.426957 -0.164720 -0.229887 -0.323115 0.347881 -0.337908 -0.058991 -0.476608 0.365724 -0.366083 -0.302216 -0.289133 0.199961 -0.213060 -0.018765 -0.097849 0.291102 -0.518818 0.244803 0.088121 0.656542 -0.212408 0.462579 -0.350774 0.480078 -0.146724 -0.061201 -0.253000 0.314191 0.031518 -0.349916 -0.016350 -0.177101 -0.229864 0.181466 0.517220 0.393281 0.186445
boring 0.466014 -0.018543 0.210868 -0.280288 -0.383842 -0.132001 -0.171332 -0.243561 -0.179286 0.014116 0.233574 0.095606 -0.199035 -0.300311 0.060553 -0.137141 0.315482 -0.578785 -0.023949 -0.306474 0.483299 -0.424016 -0.397722 -0.326076 0.090874 -0.357996 0.016099 0.012599 0.019691 0.293004 0.592706 -0.266951 0.677278 0.141705 0.388836 -0.101549 0.583031 0.249568 -0.185497 -0.246691 0.256722 0.190927 0.207096 -0.037464 0.155353 -0.128886 -0.072642 0.503689 0.397854 0.140634
tie 0.594284 0.248925 0.020702 0.191714 -0.248283 0.086594 0.178167 0.197695 -0.140752 0.382478 0.023392 -0.101164 -0.091907 0.052076 -0.087860 0.129445 0.093858 -0.198292 -0.387192 -0.371891 0.188548 0.174844 0.034887 -0.253242 0.262436 -0.126816 0.030565 0.041735 -0.234698 -0.038423 0.365288 0.003545 0.360835 -0.181693 0.355380 -0.173288 0.020295 -0.224715 0.121915 -0.188925 -0.237840 0.283306 -0.193032 -0.058371 -0.215088 0.104311 -0.075316 0.105623 0.106156 0.158580
work 1.108053 0.241866 -0.175912 0.072364 -0.363100 0.409153 -0.197541 -0.268096 0.202987 0.774211 0.674641 0.204476 -0.333458 -0.176629 0.035738 -0.211930 0.236631 -0.284533 -0.077325 -0.697367 -0.070271 -0.421767 -0.369152 -0.387309 -0.110756 -0.373697 -0.303386 -0.224336 0.374750 0.077571 -0.201513 0.365523 0.938550 -0.123562 0.306186 -0.427187 0.770563 -0.216852 0.090832 0.030686 0.159229 0.033635 -0.184699 0.107195 0.017458 -0.446395 -0.454711 0.261752 -0.046115 -0.479576
gossiped 0.271927 0.111423 -0.170258 0.011247 -0.148479 -0.012382 -0.015632 -0.071085 -0.086018 0.320825 0.119096 -0.096449 -0.202527 0.130239 0.409239 0.025804 -0.189694 0.050836 0.239867 -0.189938 0.572923 -0.288233 -0.060219 -0.040433 0.212972 -0.021051 0.027386 0.197582 -0.154880 -0.104843 -0.020736 -0.050642 0.234500 -0.149577 -0.091259 0.143626 0.309190 0.048476 -0.071562 0.118929 0.173507 0.228422 -0.024653 0.077787 0.037412 -0.029729 0.102239 0.349396 -0.090469 -0.209935
happily 0.334871 -0.064291 -0.126643 -0.047622 -0.222940 0.089863 -0.147917 0.328771 -0.296124 0.890058 0.222809 -0.294438 -0.357219 -0.334792 0.162333 -0.692497 -0.001852 -0.042621 0.323996 -0.311077 0.575302 -0.164621 -0.460399 -0.156995 0.018759 -0.224368 -0.187193 -0.031112 -0.186311 -0.155954 0.123209 0.436136 0.341844 0.163360 0.125702 -0.459091 0.932681 0.152154 -0.018468 -0.115920 0.558269 0.196159 -0.154571 0.144857 0.227130 -0.193615 -0.220875 0.467102 0.184636 -0.330573
wrestled 0.274240 0.265553 -0.026408 -0.227006 -0.077625 0.186459 0.114322 0.250493 -0.272581 0.553447 0.088964 0.000976 -0.159473 0.250914 -0.012758 0.097177 0.264631 0.061212 0.255692 -0.098695 0.117168 0.012601 -0.264656 -0.121611 0.269283 -0.059862 -0.149996 0.108067 -0.019650 -0.081273 0.152921 -0.051951 0.354364 0.109592 0.075965 -0.460805 0.013662 0.250693 0.033178 0.115691 -0.117234 -0.017103 -0.146301 -0.166447 -0.144793 0.050473 -0.109453 0.384694 0.208603 -0.046808
screaming 0.301946 0.291935 0.082730 0.066703 -0.759455 -0.120257 0.124141 0.065882 -0.051398 0.486430 0.294959 0.095221 -0.394317 -0.405994 -0.239486 -0.215460 0.174894 -0.180061 0.166312 -0.510990 0.171911 -0.271341 -0.338691 -0.336818 0.394275 -0.298970 -0.074305 -0.344957 -0.051537 -0.242417 -0.152937 0.476234 0.370695 0.134678 0.178162 -0.147688 0.668461 0.110106 -0.107050 -0.322523 -0.086690 -0.090850 -0.379113 -0.062644 -0.044086 -0.247264 0.222335 0.090078 0.504140 -0.186035
into 1.288445 0.635082 -0.315074 -0.299293 -0.240297 -0.147867 -0.050654 -0.240429 -0.308089 0.301845 0.754720 0.123860 -0.288229 0.229978 -0.286289 -0.476014 0.036133 0.801326 0.140671 0.009406 0.406558 -0.847195 -0.294090 -0.755021 0.329480 -0.875507 -0.609905 -0.293076 0.607277 -0.601105 0.490483 0.332075 0.406473 -0.597755 0.365205 -0.155446 0.467702 -0.217094 -0.098342 0.385460 -0.606530 -0.603880 0.113628 0.710761 0.530464 0.132282 0.405762 -0.106939 0.744585 0.209715
high 0.689461 -0.105348 -0.094638 -0.315051 -0.873860 -0.001398 -0.065182 -0.186594 -0.254312 0.740933 0.843845 -0.021278 -0.641050 -0.334525 0.457745 -0.143941 0.014644 -0.005014 -0.014016 -0.646057 0.155019 -0.511117 0.085754 -0.632719 0.314007 -0.031233 0.070453 -0.047243 -0.329373 -0.106350 0.614430 0.390981 0.699648 0.151659 0.210101 -0.389313 0.735608 -0.131804 -0.235061 0.375889 -0.154607 0.114752 -0.086355 -0.009100 0.312752 0.186787 0.211224 0.248781 0.875421 0.229122
chair 0.203253 0.261878 -0.311417 -0.428476 -0.568824 0.087214 0.174269 -0.091550 -0.330345 1.108551 0.449806 0.345801 -0.497539 -0.292699 0.244075 -0.062722 0.085448 -0.176944 0.303069 -0.278232 0.408985 -0.550935 -0.295470 -0.432069 0.304620 -0.589868 -0.050148 -0.125418 0.115776 -0.301175 0.056244 0.205676 0.539809 0.007500 0.284297 -0.109101 0.415165 -0.059850 0.010352 -0.043379 0.218038 0.239120 0.024647 0.185047 0.561158 0.027162 -0.316261 0.302044 0.558402 0.056559
none 0.867907 0.339473 0.318835 -0.244799 -0.557047 0.175344 -0.100151 0.048946 -0.263536 0.750511 0.275440 -0.200247 -0.350385 -0.255074 -0.388830 -0.143915 0.227855 -0.347983 0.236896 -0.174399 0.542213 -0.525211 -0.330845 -0.635330 -0.046596 -0.648728 -0.278031 -0.229094 0.303993 -0.528656 0.467788 0.147774 0.669039 -0.198108 0.146390 -0.071847 0.138625 -0.084256 -0.058320 -0.110348 0.294011 -0.143820 -0.400603 0.253873 -0.658233 0.011946 -0.298649 0.375710 0.286435 -0.181637
them 0.384594 0.402196 0.007094 0.072867 -0.256227 0.906232 0.158642 -0.065942 -0.419032 0.535464 0.369038 -0.291031 -0.684388 -0.644314 0.690491 -0.720943 -0.014044 -0.054499 0.025550 -0.837308 0.105506 0.098997 -0.631552 -0.509357 -0.128874 0.019813 -0.453021 -0.525588 0.111994 -0.849335 0.328809 0.176947 1.061633 -0.403667 0.672728 0.360479 0.411684 -0.061430 -0.093938 0.197197 0.286304 -0.429168 -0.242110 0.214191 -0.102099 0.086428 -0.796388 0.110274 0.299873 -0.436451
noticed 0.431864 0.267541 -0.254777 -0.031466 -0.565169 0.149565 -0.397647 -0.239471 -0.373246 0.940698 0.550152 0.716956 -0.310839 -0.074107 -0.034362 -0.392091 -0.089211 -0.467437 0.367178 -0.729361 0.897544 -0.135839 -0.163871 -0.523612 -0.003931 0.006960 -0.403789 -0.156310 -0.167348 -0.562811 0.463119 0.237939 1.028485 -0.412104 0.301649 -0.236191 0.711755 0.023652 0.385274 0.034406 -0.279613 -0.195416 -0.323616 0.146056 0.050227 -0.084619 -0.551328 0.487196 0.047648 0.044939
tawny 0.033954 0.283596 0.363901 0.052289 -0.094765 0.241839 -0.192884 0.236498 -0.283307 0.382584 0.274825 0.078149 -0.080762 0.098104 -0.130597 -0.374785 0.313435 -0.584712 0.224220 -0.280713 -0.187236 0.088622 -0.025861 -0.248783 0.285879 -0.424803 -0.187524 -0.141903 -0.047496 -0.479852 0.079317 0.138989 0.697681 -0.315720 0.333667 -0.078833 0.481598 -0.037714 0.194364 -0.216887 0.129189 0.072666 0.233806 -0.156304 -0.367761 -0.319938 -0.150918 0.051673 0.412654 0.173708
owl 0.663875 -0.359104 -0.090275 -0.065177 -0.504344 0.040574 0.333114 -0.627406 -0.052995 0.438786 0.299493 -0.013120 -0.215652 -0.229062 0.128315 -0.127931 0.156547 -0.084290 -0.129889 -0.329208 0.236034 -0.200741 -0.303068 -0.592329 0.084890 -0.535416 -0.494138 -0.381363 -0.082524 -0.304819 0.487953 0.431924 1.194823 0.016092 0.874880 -0.088241 0.525487 0.227153 -0.169153 -0.702074 0.255810 0.227074 -0.449328 -0.057277 -0.518214 -0.120528 -0.236757 0.311719 0.491650 0.000949
flutter 0.344937 0.249445 0.075363 0.154254 -0.036440 0.299895 -0.229823 0.325802 -0.356757 0.207822 0.392683 0.011679 -0.234783 -0.174404 0.034636 0.031522 0.426967 0.236558 0.111063 -0.453553 0.149444 -0.145471 -0.235366 -0.402899 -0.063783 -0.471234 -0.182616 -0.043701 -0.038418 -0.230649 0.117645 0.165320 0.489597 -0.047413 0.056174 -0.192675 0.560397 -0.028221 0.048950 -0.367010 -0.001667 0.413359 -0.125477 0.029987 -0.027516 -0.253194 -0.084662 0.341788 0.520534 -0.194564
past 0.696677 0.117395 0.242236 -0.437087 -0.550078 0.226991 0.185478 -0.398121 -0.329870 0.579067 0.493226 0.350249 -0.569375 -0.304987 -0.243004 0.083740 0.003721 -0.316469 0.234456 -0.327015 0.422273 -0.575608 -0.317390 -0.218559 0.256464 -0.513817 -0.446556 0.345445 -0.311083 -0.434712 0.185639 0.792225 0.755669 -0.399127 0.418885 0.184892 0.856155 0.359012 0.058851 0.411536 -0.090272 0.283448 -0.293954 0.288624 -0.032801 -0.754891 -0.201885 -0.217208 0.277372 -0.297059
window 0.541199 0.081371 -0.348683 -0.227367 -0.964893 0.212851 -0.065720 -0.073648 -0.270364 0.921484 0.939148 -0.164312 -0.105001 -0.090725 0.152915 -0.532629 0.569506 -0.245953 -0.067402 -0.565657 0.575184 -0.530242 -0.393587 -0.587745 0.035192 -0.441222 -0.119498 -0.232859 0.262952 -0.263373 0.002196 0.499939 0.455913 -0.117637 0.746960 -0.012293 0.374672 -0.540184 -0.036060 0.016138 0.330858 0.130482 -0.452976 0.072835 -0.530896 0.220485 -0.194380 0.263002 0.561586 0.286581
at 0.257135 0.915435 0.446788 -0.110459 -0.572484 -0.212671 -0.458939 -0.971329 -0.164195 1.120133 0.210780 -0.212495 -0.341751 -0.685340 -0.134117 -0.327703 0.010702 0.222684 0.472760 -0.477062 0.106183 -0.163670 -0.308803 -1.086273 0.177278 -0.275825 -0.257256 0.539674 0.509753 -1.076453 0.363096 -0.306824 0.411087 -1.195271 0.377597 0.529402 1.016149 0.127938 -0.504854 1.105221 -0.517571 -0.046883 -0.575738 0.515465 -0.033878 0.257110 -0.672127 0.203530 0.662819 0.087635
half 0.100431 0.313614 -0.128533 -0.247066 -0.262887 0.288549 0.248501 -0.282432 -0.206521 0.609184 0.153830 0.068177 -0.452088 -0.086561 -0.073844 0.046000 -0.282631 -0.066746 0.216122 -0.393354 0.230101 -0.271857 -0.439664 -0.130654 0.399446 -0.654625 -0.410532 0.023157 -0.058779 -0.196032 0.518499 0.510917 1.197533 -0.177073 0.100040 -0.058543 0.578437 -0.293720 -0.254778 -0.192029 -0.325673 -0.285533 -0.510643 0.060588 -0.143366 -0.044324 -0.237700 0.325287 0.716181 -0.329334
eight 0.233380 0.379218 -0.017298 -0.009414 -0.564025 0.232900 -0.072006 -0.177173 -0.475314 0.399241 0.125230 -0.395748 -0.150224 -0.213156 0.266685 -0.158580 -0.028986 -0.178953 0.068139 -0.323834 0.361970 -0.468022 -0.163733 -0.268917 0.098752 -0.450821 -0.210190 -0.065950 0.217643 -0.274967 0.269779 0.177416 0.636464 0.088736 0.274439 -0.020205 0.511759 -0.023877 -0.047234 0.234731 -0.212016 -0.334425 0.095538 0.342655 -0.206102 -0.257490 -0.285791 0.389713 0.479037 -0.042130
briefcase 0.249080 0.136832 -0.112180 -0.018810 0.231639 -0.000230 0.065806 0.023737 -0.347351 0.566674 0.208433 -0.118475 -0.171453 -0.087572 0.307588 0.065188 0.188561 0.066473 -0.171537 -0.231667 0.024010 0.180053 -0.405789 -0.013105 0.067482 -0.068396 -0.120885 -0.065581 0.073662 0.081396 0.270167 -0.083774 0.167872 0.008841 0.344894 -0.141399 0.134817 0.271435 0.017953 0.224858 0.297065 0.215938 0.088425 0.390065 -0.020693 -0.202055 -0.540751 0.062068 -0.062703 -0.059103
pecked 0.067017 0.197448 0.004951 -0.245563 -0.305052 0.078985 0.056754 -0.141209 -0.148260 0.506762 0.434721 0.151016 -0.278353 -0.518205 0.176570 -0.159218 -0.041846 -0.260043 0.198793 0.143743 0.021384 -0.198005 -0.171918 0.100107 0.075667 -0.294238 -0.119376 -0.324374 -0.040634 -0.002634 0.305497 0.238978 0.429634 -0.234903 0.269371 -0.166601 0.201524 0.273403 0.090287 -0.122182 -0.263764 -0.149540 0.226977 0.106857 0.303485 -0.098854 0.465344 0.198257 0.053472 -0.230539
cheek 0.321166 0.119444 0.154214 -0.158901 -0.567466 -0.087078 0.059924 0.053760 -0.338896 0.360468 0.295734 0.236880 -0.529246 -0.278063 -0.211794 -0.046020 0.464103 -0.363231 0.165495 -0.590821 0.507174 -0.350226 -0.310815 -0.389231 -0.281125 -0.670354 -0.038137 -0.134103 0.053106 -0.277824 0.031300 0.110409 0.457163 -0.132544 0.038689 -0.061197 0.784140 -0.308054 0.021786 0.198681 0.183693 0.148912 0.171498 0.274082 0.014875 0.072967 -0.125263 0.285808 0.178713 0.391411
tried -0.052810 0.357837 -0.060893 -0.250620 -0.828473 0.290093 -0.209686 -0.028386 -0.344136 0.592124 0.744280 0.385369 -0.547835 -0.494023 0.329125 -0.297130 -0.170346 -0.843392 -0.335034 -0.713554 0.459335 -0.089752 -0.471946 -0.654113 0.115746 -0.156868 -0.311442 -0.321700 0.003052 -0.384907 -0.455433 0.791858 1.197281 -0.266798 0.675677 0.230383 0.972592 -0.242838 0.656508 0.371579 -0.310646 -0.584403 -0.390597 0.512340 -0.062123 -0.533017 -0.313804 0.603836 -0.047410 0.234130
kiss 0.456919 -0.176250 0.095154 0.167346 -0.502423 -0.441144 0.061270 0.376660 -0.524164 0.208621 0.065102 0.148808 -0.167838 -0.239873 -0.173785 -0.316846 0.024823 0.063325 -0.086525 -0.341394 0.478796 0.265898 -0.277835 -0.189471 0.339135 -0.600535 -0.399740 -0.016765 0.014039 -0.092373 0.291229 0.384293 0.604750 -0.335975 0.184965 -0.059622 1.028364 -0.503155 -0.148250 -0.132790 0.178385 0.121852 -0.064182 0.128481 0.150754 0.145992 -0.059493 0.185482 0.045000 0.203582
goodbye 0.437459 0.037754 -0.109312 -0.485667 -0.359918 0.252501 -0.064562 0.131168 -0.308397 0.677352 0.149356 -0.161184 -0.272442 -0.137314 -0.428454 -0.515774 0.118259 0.093678 0.342672 -0.750365 0.202467 0.006465 -0.312297 -0.246335 0.157732 -0.250134 -0.297449 0.392001 -0.140816 -0.050575 -0.045940 0.472695 0.844789 -0.463842 0.861857 -0.252877 0.781232 -0.545649 0.186659 -0.308079 0.075484 -0.080746 0.101269 -0.103178 0.455095 -0.067874 0.008514 0.232300 -0.031597 -0.365181
missed 0.778775 0.204330 0.099050 -0.120567 -0.645347 -0.136995 -0.433123 0.110732 -0.027413 0.722581 0.123253 -0.216443 -0.268441 -0.310028 -0.263481 -0.424822 0.121388 -0.178448 0.564240 -0.292737 0.406996 -0.040497 -0.567103 -0.697048 0.162629 -0.156546 0.042398 -0.140571 -0.157784 -0.072297 0.173337 0.084101 0.288864 -0.073478 0.131422 -0.187674 0.461237 0.134570 0.062479 0.199390 -0.315218 0.000609 -0.019444 0.419279 -0.235066 -0.157555 -0.275053 0.371767 0.290669 0.030884
now 0.806349 0.394641 -0.059896 -0.081730 -0.602175 0.215572 -0.122945 -0.540835 -0.407993 0.554733 0.344852 0.113755 -0.204304 -0.279732 -0.149222 -0.675104 0.061732 -0.040317 0.259095 -0.630462 0.118778 -1.034347 0.007815 -0.178329 -0.320280 -0.682269 0.008125 -0.352279 0.115022 -0.643807 0.148794 0.220006 0.790646 0.274705 0.329790 -0.174822 0.556346 -0.250103 0.428666 -0.436802 -0.262584 -0.308342 -0.512013 -0.069012 -0.079117 -0.379812 -0.900776 0.293496 -0.149774 -0.088379
